#ifndef QCSNET2_QFX_CBLK2_QCONV1D_WEIGHTS_H
#define QCSNET2_QFX_CBLK2_QCONV1D_WEIGHTS_H

#include <ap_fixed.h>
// Q-format collapse
// Learned per-channel Î: [4]
// Exported I_layer = 4
using qcsnet2_qfx_cblk2_qconv1d_fx = ap_fixed<8, 4, AP_RND, AP_SAT>;

namespace hls4csnn1d_cblk_sd {

const int qcsnet2_qfx_cblk2_qconv1d_OUT_CH = 24;
const int qcsnet2_qfx_cblk2_qconv1d_IN_CH  = 16;
const int qcsnet2_qfx_cblk2_qconv1d_K      = 3;

static const qcsnet2_qfx_cblk2_qconv1d_fx qcsnet2_qfx_cblk2_qconv1d_weights[24][16][3] = { -0.04247216135, -0.0949967429, -0.09949283302, 0.1131563708, -0.2229053676, -0.2320763916, -0.1560133696, -0.06428468227, 0.05073801056, 0.06860184669, -0.06269830465, 0.1888992339, 0.2269850522, -0.1855366081, 0.123160474, 0.2320154905, -0.04360300675, 0.03079752252, -0.006438119337, -0.09813692421, -0.02259430848, 0.4079238474, 0.06854893267, 0.3319097459, 0.1601902246, -0.004518280271, 0.09625899792, -0.01257747877, -0.1371746659, 0.1846796274, 0.1093080789, -0.0186270494, -0.3042900562, -0.03159667179, -0.1975554377, -0.09735546261, -0.1672845632, -0.01754467376, -0.08063440025, 0.03799809888, 0.002952522831, -0.01882472448, 0.05121580884, -0.04829795286, 0.2803303599, 0.00531227747, 0.01835103333, 0.02041871659, 0.07015933841, -0.05930083618, 0.08385841548, -0.2216345221, -0.2766574025, -0.07583165169, 0.1550955474, 0.03555073217, -0.1945544183, 0.1347117424, 0.07815226167, -0.1440709084, -0.2115335613, -0.2914833128, -0.1249296293, 0.1525996327, 0.1414202601, 0.003776655998, 0.0873132199, 0.02989318408, 0.0337330699, 0.2274057418, 0.1480152011, 0.1666965485, -0.1094573364, 0.09336636215, -0.02615410089, 0.2781080306, -0.01337479893, 0.06157129258, -0.05816272274, 0.08481247723, -0.1956238449, -0.1538088471, 0.2216742933, 0.02551644295, 0.06679034978, -0.1430872977, 0.02406934649, -0.002635454759, -0.01993196085, 0.03016146272, 0.3002409339, 0.002264918527, 0.1717812419, 0.1579909325, -0.056194067, 0.1071144119, -0.05552667007, 0.01904107258, 0.05766277388, -0.07326551527, 0.1539770812, 0.008673151024, -0.2051339, -0.1172426939, -0.07042323053, -0.0955715403, -0.1112325266, 0.1079709604, -0.1533610672, -0.03205607831, 0.2795188427, -0.09660918266, -0.03037053719, 0.06580323726, 0.009090765379, -0.03021429107, 0.01005121972, -0.1500559598, -0.1402000487, 0.1195345297, -0.0447896421, 0.02114795335, 0.06384603679, -0.1852508336, 0.07999757677, 0.09655380249, -0.05930200219, -0.2232080251, -0.04410690814, 0.1822867095, 0.4259642363, -0.1875382066, 0.02100691199, -0.1183178574, -0.09231571108, 0.02856686711, 0.06145616993, -0.01736920141, 0.1649771929, 0.1746659428, 0.1029695794, -0.05089538172, 0.008227633312, 0.07725415379, 0.02882046066, 0.007311439142, 0.01586019807, 0.07618126273, -0.310426712, -0.05624472722, -0.1602028757, 0.1478822231, 0.07881854475, 0.1036042422, 0.1940910071, 0.0340222232, 0.07330687344, 0.1927578449, 0.1525922716, 0.07025364786, 0.09362988174, 0.1278927624, -0.02474522032, -0.003738467814, -0.02502555586, 0.2650088072, -0.05488443002, 0.2732430398, -0.02407930419, 0.0869987309, 0.004329286981, 0.1256934553, 0.03289093077, -0.02857265621, -0.1427322924, 0.2289700806, 0.344994843, -0.05585828424, -0.4167352319, 0.09872531146, 0.02455022, -0.31140095, -0.1427453756, -0.03275275975, -0.02344289422, 0.02200964279, 0.004495769739, 0.04676025361, 0.03666947782, 0.08977328241, -0.07670459896, -0.04128606245, 0.1496783495, 0.06165314093, -0.0439918898, -0.1348281056, -0.1768844724, -0.1517521739, 0.007888089865, 0.02226743661, 0.2008419931, 0.1435034424, -0.0409460403, -0.09129359573, -0.1761915088, -0.03118427843, 0.1040080115, -0.0378237702, 0.1252153367, -0.09840951115, -0.01394918561, -0.02200899273, 0.0070772334, 0.09887960553, -0.3250538707, -0.02510454506, -0.02824390121, -0.00571005512, 0.08865235001, -0.169693619, -0.06874407828, 0.2347839326, 0.2360729873, -0.0541623868, -0.417999357, -0.174539268, 0.08838480711, 0.2487655133, 0.06385111064, -0.0248654969, 0.100244455, 0.03846299648, 0.01602710597, -0.02209035121, 0.2127684504, -0.02968052961, 0.2210440487, 0.02565523423, -0.1017158329, 0.01994285733, 0.07052304596, 0.02193455212, -0.07250153273, -0.2930428386, -0.3448556364, 0.2750881016, -0.1105900332, 0.2656674385, 0.2161021531, 0.1584555358, 0.1354399472, 0.03121692315, -0.1193068102, 0.06708464772, 0.02991207875, -0.03378520906, 0.2484830916, 0.07807288319, 0.0264398735, 0.0308568012, 0.06504727155, 0.01047720667, -0.2488697916, 0.2167264074, 0.05650615692, -0.02903173491, 0.03279468045, -0.07453880459, 0.1695401073, 0.1542145163, -0.08406513184, 0.07945870608, 0.09081076831, 0.09420058876, -0.2218274772, 0.08318268508, 0.1129398495, -0.07319622487, 0.1463547796, 0.03112125024, 0.019403629, -0.007067134604, 0.06031686813, 0.1894321144, 0.2135110199, 0.04764056578, -0.02641128562, 0.1389447898, -0.1389147639, -0.08475985378, 0.03414037824, -0.2921230793, 0.1362488866, -0.08882589638, -0.1266639531, -0.06361182034, -0.01958634146, -0.1564920396, -0.09429939836, 0.3077496588, 0.2770141363, 0.1034565195, -0.1288999915, 0.1198033392, -0.09375942498, 0.114825137, -0.01760999858, 0.03034738079, -0.01889245026, 0.3137057126, 0.1101238951, 0.1978652775, 0.2637045383, -0.111824289, -0.1120522618, 0.09322301298, -0.06073915586, 0.1598920077, 0.01703379862, -0.1876885891, -0.3995227814, 0.1409402937, 0.2205308676, -0.02466339245, -0.171245724, 0.2984162569, 0.1361193806, 0.006852256134, -0.05466334522, -0.08581827581, 0.2611458898, 0.001063102623, 0.09442898631, -0.001064435113, 0.1109068766, -0.01870525256, -0.05502410606, 0.08844777197, 0.0196073167, 0.01038514078, 0.2848359048, 0.2361718714, -0.1100814492, -0.1386999339, 0.01107283868, -0.284519732, -0.1198473051, 0.1061471701, -0.05237417296, 0.0622170791, 0.2390295416, -0.09999827296, -0.04659782723, 0.1136137396, -0.01600844599, 0.02274033614, 0.1469818503, -0.1158732399, -0.125794068, 0.2136582881, 0.004990245681, 0.05261012539, 0.0324902907, 0.03160914779, 0.1154195964, 0.1016815603, 0.05107125267, 0.2946662009, 0.4643743634, 0.3445340097, 0.1162340045, -0.2503657043, -0.04184658453, 0.03745796159, 0.03384484723, 0.01807314157, -0.03729990497, 0.03501605615, -0.03071617894, 0.1538318694, 0.164583832, -0.0386265181, 0.03172477335, -0.006495489739, -0.008275710046, 0.02522137202, 0.02424392104, -0.01344608143, 0.1513253599, 0.145736441, 0.1560355723, 0.01773329824, 0.07355565578, 0.01919465885, -0.0619898513, -0.1166180074, -0.179987669, -0.0266080033, 0.02667591907, 0.01878608391, -0.08566714078, -0.04705027491, 0.0249972865, 0.03795396909, 0.05732742324, -0.002576122293, 0.2830432057, -0.01427118201, 0.07504697889, 0.05221154541, -0.1015430316, 0.1318120956, -0.09073815495, 0.1027729884, 0.2452491373, 0.1838308126, 0.2101699859, 0.3690360487, 0.4671749473, 0.3049660027, -0.1756074876, 0.1181150079, 0.3606693745, -0.03290957958, 0.01560601871, -0.001836562878, -0.0512669608, 0.276114583, -0.03006527014, -0.01235808525, -0.006220460869, -0.08813708276, -0.03217639402, 0.03782578558, 0.08232197911, -0.3989125192, -0.1300777644, -0.2475215048, -0.1110937372, 0.3096500337, -0.03323879093, 0.03444243222, 0.09805056453, 0.03190999478, 0.09097853303, 0.3234866261, -0.109466359, -0.09348472953, -0.02638139762, 0.06086439267, -0.008576217107, 0.06594292819, 0.002012301469, 0.02300967462, 0.01774460636, 0.05270710215, 0.1330364048, -0.0894074887, -0.09261381626, -0.01513951272, -0.03056474589, 0.1459639668, -0.1545075327, -0.02296353504, 0.03971446306, 0.253115803, -0.08278955519, -0.08643133193, 0.01793316565, 0.1284760237, 0.1154889837, -0.02966400422, -0.006545979064, -0.03046321124, -0.1111823991, 0.252287209, 0.02269130759, -0.04126417264, -0.0324761644, 0.02736301906, -0.1364225596, -0.04648553208, -0.06051566824, -0.3191868067, 0.03415082023, -0.358430475, 0.007503174245, 0.01871844009, 0.05257678032, 0.03612109646, -0.145742625, 0.1509092599, 0.09150394797, -0.2062543333, -0.005600477103, 0.1535486728, -0.2576025426, -0.1211847663, -0.09117148072, -0.04077867046, -0.03402113169, 0.3809250295, 0.1671770364, 0.0397365056, 0.1787554622, 0.01841029897, 0.02411621809, 0.02109926753, -0.07138273865, 0.04615056887, 0.1619282961, 0.1055630893, -0.1570064723, 0.3508556783, 0.3852428794, 0.003677035915, -0.3490859866, 0.236368373, 0.09779986739, 0.076410532, -0.03142491356, -0.01359928679, 0.03944707662, -0.1152202487, -0.215011999, 0.007489425596, 0.09619949758, -0.03668869287, -0.06019914523, -0.009726778604, 0.02665620856, -0.3579591215, -0.004156396724, -0.06370720267, 0.2216026485, 0.2834058404, 0.1174607649, 0.04214519262, 0.07931424677, -0.05596967414, -0.09453064203, 0.1730194092, -0.1691462249, -0.1063285843, -0.02766883932, 0.09435892105, -0.01253584865, 0.05729296058, 0.02641715668, -0.0981214121, 0.2175746113, -0.02128719352, 0.1324611008, -0.04498280585, -0.0755129382, -0.3215611279, 0.2685221136, 0.002523152856, -0.05947577953, -0.06220515445, 0.226207152, 0.3235611916, 0.308709383, 0.07732669264, 0.117808938, -0.004969749134, 0.2128873467, 0.01302751526, 0.03482412919, -0.02590439655, -0.01993403211, 0.3046268821, 0.08418983966, -0.04589782283, -0.005462900735, 0.05476474017, 0.09615644813, 0.10534852, -0.06458640844, 0.003230312373, -0.4059319198, -0.21874246, -0.3477992117, -0.07680473477, 0.2053479403, 0.121631667, -0.03087505698, -0.03415825963, 0.2102598548, 0.07206956297, 0.08626940846, 0.03116455674, 3.619965719e-05, 0.1314177066, -0.01243525371, -0.005725965369, -0.03354493901, 0.1570314616, -0.1402959228, 0.1478719562, -0.01116970554, -0.1318065226, -0.001920649665, -0.08833172917, -0.02988105081, 0.1625545621, -0.1577075571, -0.02416236512, 0.04483109713, -0.1007874981, -0.5108085275, 0.2380521446, -0.08336513489, -0.03736227751, -0.04036686569, 0.007483863272, -0.01630415767, -0.03428656608, 0.08560337871, 0.1591353416, 0.2980337739, 0.001378682093, 0.05760512128, -0.1627012789, -0.05822102726, -0.001499770209, 0.08667726815, -0.3401530385, -0.2410426885, -0.117636539, -0.01151728909, 0.1918126196, 0.1700626165, 0.1216744408, 0.1758448333, 0.1441181898, -0.2444240749, 0.1875303388, 0.0599693656, 0.03571654111, 0.1182806715, 0.01004844811, -0.01537664793, 0.01859737746, 0.03624942526, 0.1233585551, -0.3067651987, 0.1920989305, -0.008728590794, 0.05293430015, 0.03975367546, -0.0240871869, -0.0727924332, 0.1552211195, -0.01099614892, 0.0658601895, -0.09562865645, -0.03547734395, -0.1596843153, -0.08819810301, 0.1053694561, -0.1539099813, 0.1094658449, 0.006456811912, 0.03691393137, -0.06406798959, 0.2066702098, 0.07649903744, -0.1278303415, 0.05592135713, -0.1744805127, 0.1884349585, -0.08047273755, -0.0949292779, -0.02649583481, -0.008591213264, -0.06366466731, 0.03618431836, 0.1958687752, 0.06311221421, 0.3428155184, 0.1218766943, 0.07979103178, -0.03183505684, 0.4270676374, -0.4023954272, -0.1562721282, -0.03163379058, -0.01790937036, 0.005658688489, 0.001335610985, -0.02239613794, -0.03656807169, 0.198780179, 0.1719351411, -0.1148188636, 0.03236285225, 0.04759663343, -0.03111319989, 0.05852005258, -0.1588813961, 0.05221529678, 0.454734832, 0.08879513294, -0.1202039868, 0.02453021333, 0.152306959, 0.3795573115, 0.03909128904, -0.06696470827, 0.2605811954, 0.009010463022, -0.03295759857, 0.01251321007, -0.1297589391, 0.02199238352, -0.007922575809, -0.0154841952, 0.04466323555, -0.04167421907, 0.1504693776, -0.03197538853, 0.04707673565, -0.1932571083, -0.1358233243, -0.2212174535, -0.2024209201, -0.03203116357, -0.1502555758, 0.07598362863, 0.0944365412, 0.08052862436, 0.01304692682, 0.1882910281, 0.1723078936, -0.1381968558, 0.03115662746, 0.02790652215, -0.03542739153, -0.09312064201, -0.04713593423, -0.007370606996, -0.08292625844, -0.07111363858, -0.03113324009, 0.01000397187, 0.03394751251, -0.09160830081, 0.04011679068, 0.1258996129, -0.4408375025, -0.2340601981, -0.03695879504, 0.344080776, -0.1121801585, 0.004095424432, 0.03685951605, -0.09367070347, -0.2731981874, -0.001232240815, 0.0401192978, 0.04923465848, 0.01009528991, 0.1493626535, 0.1585943103, -0.03159214556, 0.03281760216, 0.03454799205, -0.1553825289, -0.02806727216, 0.03523120657, 0.3692121506, -0.03188195452, 0.2038686872, 0.1796012819, 0.1189844385, -0.09255538136, 0.04057991877, 0.1550464481, 0.07053197175, 0.2187979966, -0.007450380828, -0.1266691238, 0.009824734181, 0.2213625312, -0.03205689043, -0.005345738959, -0.003447267925, -0.03171238303, 0.08430396765, 0.07806420326, -0.04956269637, 0.07478478551, 0.03314594179, 0.0223911684, 0.2412113696, -0.07232848555, -0.1564004421, 0.17636998, 0.1973462403, 0.1708223671, -0.07796121389, -0.0436967127, -0.01203285996, 0.06483667344, -0.255789578, 0.1726414561, 0.002466494218, 0.016998142, 0.01266141795, -0.1283918023, -0.1157661006, -0.2040516436, 0.1141886413, 0.009392143227, -0.01006141864, 0.01933651045, 0.006381748244, 0.1054916307, -0.2267649919, -0.006111771334, 0.1651346236, 0.07648124546, 0.2039484978, 0.1085243076, -0.01652151346, 0.0683587715, -0.02393305302, 0.05680768937, 0.1495264471, 0.1684109569, 0.2693627775, 0.01455285121, -0.01346932817, 0.08431303501, 0.08605787903, 0.06239528954, 0.0530802533, 0.3179903924, 0.2943089008, 0.05423935875, -0.02448955178, -0.03501680121, 0.2505781651, 0.04648178443, 0.3121505976, 0.2280421406, 0.08696118742, 0.01821412705, 0.06692528725, -0.02142841928, -0.1380506158, 0.02458568476, -0.03905457631, -0.03287765756, -0.03446736932, 0.003988248296, 0.02909515798, 0.003086475655, 0.3733640611, 0.4566669166, -0.01737023517, 0.01331181359, -0.0635805279, 0.1425253451, 0.1466704607, 0.111029014, -0.2444087565, -0.137113452, -0.1384643316, 0.002229223261, 0.2716838419, 0.1258341372, 0.007647493854, -0.1143086702, -0.03068256751, -0.116256088, -0.2377713472, 0.1030325815, 0.2163383663, 0.142791152, -0.07285136729, 0.02365633845, 0.09368113428, 0.1476144195, 0.1595069021, 0.05934857205, -0.0009451310616, 0.07989358157, -0.06117269024, -0.07017582655, 0.1352889985, 0.1757101119, -0.02096739598, -0.03938954696, 0.3602859676, 0.1489269584, 0.3206344843, 0.1361909211, 0.1533288509, 0.03533130884, 0.1625026613, 0.2548195422, -0.001771198469, -0.0008188219508, -0.01157193165, 0.07765185088, 0.3948380649, 0.424500525, 0.04093082622, -0.0727243498, -0.007775653619, -0.0393939428, -0.1003641784, 0.02421512455, 0.04358397424, 0.1561882496, -0.04020997137, 0.06388052553, 0.006162577309, -0.2695513368, -0.09453056753, 0.2227441519, -0.02376082167, 0.03832362592, 0.1910342872, 0.1744259298, -0.1395589113, 0.02828717791, 0.04379412532, -0.01136450749, -0.04749566317, -0.01884308085, -0.1330963522, 0.3157102764, 0.08052776754, -0.01452654134, 0.04125401378, -0.04766749591, -0.1332338005, 0.1546880752, 0.08965699375, -0.1129583344, -0.07128135115, 0.1100109741, 0.6286204457, 0.2935914397, -0.1649341732, 0.09769076109, -0.03373874351, -0.183182925, 0.01122615021, -0.003365101758, 0.01599355787, 0.01831224747, 0.0540279597, 0.05530529469, 0.01912660152, -0.07928909361, 0.09642026573, -0.07541257888, 0.06813153625, -0.03067454323, -0.1356762946, -0.1940387189, -0.1175937727, 0.1916158646, 0.1948900223, -0.0570368059, 0.2615539432, 0.0659449622, -0.2143439204, 0.210227564, 0.03924992681, -0.1602950096, 0.02227184363, -0.08437795192, 0.0356625542, 0.004506024532, 0.02123297006, -0.03130283207, -0.09192676097, 0.1360636055, 0.06203597784, -0.06591643393, -0.1667512506, 0.1301872581, 0.09787137061, -0.1769138575, 0.09386074543, 0.2168057263, 0.06521554291, -0.1318895668, -0.1842922121, 0.001387153054, 0.6096978188, 0.04910085723, 0.003672513412, -0.03023306839, 0.02871206775, 0.001106500626, -0.03894085437, -0.1416732967, 0.1282798499, 0.1097288728, 0.06857855618, 0.1128606349, -0.1092652753, 0.1002937183, -0.1433317512, -0.03952502832, -0.1700032651, 0.2208622396, -0.4151407182, 0.09755817801, 0.2318535, -0.1360892951, 0.1322475076, 0.07444619387, 0.09312044084, 0.08079693466, 0.03049026988, -0.02781827189, 0.03233923763, -0.02476562187, -0.1532755792, -0.02206888795, -0.07112038881, -0.01414015982, -0.1760680676, 0.1749006063, -0.01033894252, 0.03530525789, 0.0939527154, 0.05451824889, -0.1436446011, -0.02752071992, 0.01632685773, -0.004785355646, -0.1687487513, -0.1570730805, 0.372092247, 0.182015568, 0.02650043741, -0.0113808196, 0.1499055773, -0.1887620836, 0.03033179231, 0.05996616185, -0.02156857401, -0.1311000139, -0.03647616133, -0.03081666306, 0.1002248898, -0.2140215486, 0.07564879954, -0.05937967449, -0.07134402543, 0.03107641637, 0.1434779614, 0.006704737898, 0.06733383983, 0.3433204591, 0.3720588088, -0.02540644258, 0.0669477284, 0.2739622891, 0.233031854, 0.1543826014, 0.009171955287, -0.09006536007, 0.23398076, 0.05105027184, 0.01673407294, 0.03985544667, -0.002775908681, -0.02254968323, -0.18674016, 0.2672534585, 0.2187241614, 0.1186438873, 0.09005364776, 0.02127458341, 0.2341455519, -0.05351287872, -0.03291589767, 0.1919588298, 0.2916520536, 0.05990918353, 0.1813806593, 0.03968298808, -0.02259089053, 0.03293509409, 0.0445619747, 0.002707636217, -0.01558732614, -0.01996828802, -0.00476222299, -0.1269149333, -0.103858456, -0.2252198309, 0.1632936448, -0.174058035, -0.04159979522, 0.01762597822, -0.0939611122, 0.1112302318, -0.2607915103, -0.1638159752, 0.3353035152, 0.03020273708, 0.1178539246, 0.2864385843, 0.02932874486, 0.1556093395, 0.1648398787, -0.1156145558, 0.2329032123, -0.09619564563, -0.03117764741, 0.09604067355, 0.09559667856, 0.03763636947, -0.01613361202, 0.04525036365, 0.01025836542, -0.1533860564, 0.05103639886, 0.0497264564, 0.08424334228, 0.03898882493, -0.09522642195, 0.005508733913, 0.1307498366, -0.1132493839, 0.1313454658, 0.4793636203, 0.007151068188, -0.03247109801, 0.08702816814, 0.06887342036, -0.2239475995, 0.2412111461, -0.01755053923, -0.002587771742, 0.0333224237, 0.08838942647, 0.07383127511, 0.08545377105, -0.004790284205, 0.01236070134, 0.1959191561 };

} // namespace hls4csnn1d_cblk_sd

#endif // QCSNET2_QFX_CBLK2_QCONV1D_WEIGHTS_H
