#ifndef QCSNET2_CBLK2_QCONV1D_WEIGHTS_H
#define QCSNET2_CBLK2_QCONV1D_WEIGHTS_H

#include <ap_fixed.h>
typedef ap_fixed<8, 4, AP_RND, AP_SAT> ap_fixed_c;

namespace hls4csnn1d_cblk_sd {

const int qcsnet2_cblk2_qconv1d_IN_CH  = 16;
const int qcsnet2_cblk2_qconv1d_OUT_CH = 24;
const int qcsnet2_cblk2_qconv1d_K      = 3;

static const ap_fixed_c qcsnet2_cblk2_qconv1d_weights[24][16][3] = { -0.375, 0.5625, 0.625, 0.9375, -0.3125, -0.25, 0, 0.125, -0.1875, -0.5625, -0.375, 0.5, -0.375, 0.0625, 0.5625, 0.375, 0.1875, -0.1875, -0.9375, 0.4375, 0.25, -0.1875, 0.0625, 0.25, 1.0625, 0.9375, 0.375, -0.8125, 0.5, 0.0625, -0.5625, -0.5, 0.625, -0.5, -0.3125, 0.3125, 0.0625, -0.5, 0.125, -0.3125, -0.3125, -0.8125, -0.4375, 0.1875, 0.0625, -0.3125, 0.125, 0.5, 0.1875, 0.0625, 0.5625, 0.0625, 0.1875, 0.375, 0.125, 0, 0, 0.0625, 0.1875, -0.25, 0.0625, -0.125, 0.1875, 0.125, -0.125, -0.375, -0.1875, 0.0625, 0.625, 0, -0.1875, -0.1875, 0.3125, 0.5, 0.375, 0.1875, -0.1875, 0.0625, 0.25, -0.375, -0.625, 0.25, 0.125, 0.1875, 0.0625, 0.0625, -0.25, 0.0625, -0.25, 0.1875, -0.1875, 0, -0.0625, -0.0625, 0, 0.3125, 0.125, 0.0625, -0.0625, -0.375, -0.1875, -0.625, 0.4375, -0.375, -0.1875, 0, -0.5, 0.25, 0.3125, -0.0625, -0.125, -0.4375, 0, -0.125, 0.3125, -0.625, -0.1875, -0.0625, -0.0625, 0.375, 0.125, 0.125, 0.375, -0.1875, -0.375, -0.0625, -0.1875, 0, -0.375, 0.25, -0.0625, -0.3125, 0.0625, 0.125, 0.4375, 0.3125, 0.25, 0.6875, 0.25, -0.3125, -0.125, -0.1875, -0.0625, -0.25, -0.4375, -0.1875, 0.375, 0.375, 0.0625, 0.5, 0, -0.25, 0.1875, 0, -0.5, -0.25, 0.3125, -0.125, -0.3125, -0.25, -0.25, 0.5, 0.0625, 0.1875, -0.1875, -0.3125, -0.4375, -0.25, 0.0625, -0.3125, 0.5625, 0.1875, 0, -0.5, -0.4375, -0.5, 0.25, -0.3125, 0.0625, 0.125, -0.4375, 0.4375, 0.75, 0.0625, 0.5, 0.375, -0.125, -0.25, -0.375, -0.125, -0.0625, -0.25, 0, 0.0625, 0.125, 0.125, 0.3125, 0.375, -0.125, 0, 0.1875, -0.1875, 0, 0, 0.25, -0.0625, 0.125, 0.625, -0.125, -0.25, 0.0625, -0.3125, -0.125, -0.0625, 0.0625, 0.125, -0.0625, 0, 0.125, 0.125, -0.25, 0.125, -0.25, 0, -0.125, -0.25, -0.0625, 0.25, -0.25, -0.4375, -0.1875, -0.25, -0.0625, -0.1875, -0.125, 0.25, -0.125, -0.0625, 0.0625, -0.0625, -0.1875, -0.0625, 0.25, 0.5, 0.375, 0, 0.25, -0.125, 0.125, 0.125, -0.0625, 0.4375, 0.125, 0.3125, 0.0625, -0.8125, 0.6875, 0.4375, 0.0625, -0.0625, 0.5, 0.4375, 0.1875, 0.1875, -0.125, -0.125, 0.0625, -0.25, 0.1875, 0.125, 0.3125, 0.25, 0.4375, 0.4375, -0.125, -0.25, -0.5625, 0, -0.0625, -0.25, 0.1875, 0.125, 0.25, -0.375, 0.0625, -0.0625, -0.0625, -0.0625, -0.5625, 0.4375, 0.25, -0.5, -1.5, 0.1875, 0.1875, 0.5, -0.4375, 0.1875, -0.125, 0.625, -0.375, 0.0625, 1.3125, 0.8125, -0.125, -0.1875, -0.3125, 0.75, 0.25, 0.625, -0.25, -0.375, -0.125, -0.1875, -0.25, -0.3125, 0.3125, 0.875, 0.3125, -0.0625, 0.1875, -0.3125, 0.3125, -0.125, 0.1875, 0.125, -0.0625, 0.375, 0.125, -0.75, -0.375, 0.8125, 0.4375, 0.1875, -0.1875, 0.6875, 0.125, -0.1875, 0.125, 0.1875, -0.4375, -0.6875, -0.625, 0.25, 0.125, 0.1875, 0.125, 0.25, -0.0625, 0.25, 0, -0.1875, 0.3125, 0.4375, -0.5625, 0, -0.5, -0.0625, 0.125, -0.0625, 0.25, -0.3125, -0.25, -0.25, 0.5, -0.0625, 0.0625, -0.3125, 0, -0.4375, -0.0625, 0, -0.3125, 0.3125, 0.0625, 0.1875, -0.1875, -0.1875, -0.3125, -0.0625, 0.3125, 0.3125, -0.125, 0.375, -0.0625, -0.4375, -0.1875, -0.9375, -0.875, -1, 0.25, -0.0625, -0.3125, 0.3125, -0.3125, 0.125, 0.8125, 0.4375, 0, 0.125, 0.5, 0, 0.1875, -0.1875, 0.25, -0.125, 0.1875, -0.0625, -0.125, 0, -0.3125, 0.25, -0.0625, 0.0625, -0.0625, 0.3125, -0.0625, 0.5625, -0.3125, 0.25, 0.5625, 0, -0.5625, 0.375, -0.1875, -0.1875, 0.625, -0.25, -0.4375, -0.125, 0.3125, -0.125, -0.0625, 0, 0, 0.125, 0.375, 0.375, 0.1875, 0, -0.0625, 0.25, -0.0625, 0.25, 0.125, -0.1875, 0.25, 0.1875, 0.5, 0.0625, 0.5, 0.25, 0.875, 0.0625, 0.25, 0, 0.125, -0.125, -0.0625, -0.1875, -0.125, 0, 0, 0.25, 0, 0.125, 0.0625, -0.125, -0.1875, -0.0625, 0.3125, 0, -0.0625, -0.125, 0.0625, 0, 0.125, -0.1875, 0.0625, 0.3125, 0, 0.625, 0.0625, -0.5625, -0.625, -0.375, -0.75, 0.1875, 0.0625, -0.0625, -0.0625, 0.125, -0.1875, -0.375, 0.0625, -0.125, -0.0625, -0.375, 0.125, -0.6875, -0.3125, -0.4375, 0.5, 0.5, 0.25, 0.375, 0.0625, 0.3125, 0.0625, 0.125, -0.3125, 0, 0.6875, -0.9375, -0.1875, 0, 0.125, -0.125, 0, 0.5, 0, 0.4375, -0.0625, -0.0625, -0.125, 0.1875, 0.3125, 0.375, -0.125, 0.3125, -0.5, 1.375, -0.5, -0.5625, 0, 0, 0.0625, 0.25, -0.0625, -0.5, 0.375, -0.25, -0.5625, 0.5625, 0.8125, 0, 0.0625, -0.3125, 0, -0.125, 0.3125, 0.5, 0.5625, 0.0625, -0.3125, 0.375, -0.5625, 0, -0.5, 0.375, 0.5, -0.125, 0.125, -0.6875, 0.4375, 0.0625, 0.4375, -0.0625, -0.375, 0.4375, 0.0625, -0.1875, -0.625, -0.25, -0.125, -0.5, 0.5, 0.1875, 0, -0.9375, -0.5, -0.5625, 0.1875, 0.1875, 0, -0.1875, 0.4375, -0.0625, -0.1875, 0.0625, 0, 0.3125, 0.375, 0.0625, -0.4375, -0.0625, -0.0625, 0, -0.1875, 0.0625, -0.1875, -0.125, 0.4375, 0.0625, -0.125, -0.25, 0.0625, -0.5625, -0.375, -0.125, 0.4375, 0.0625, -0.0625, 0.1875, 0.5625, 0.4375, 0.375, -0.0625, -0.0625, 0.5, -0.125, 0.125, -0.25, -0.1875, -0.1875, 0.1875, 0.1875, -0.0625, -0.0625, -0.4375, 0.5, 0, -0.25, 0.4375, 0, 0.125, 0, 0, -0.3125, 0.0625, -0.75, 0, 0.1875, -0.0625, 0.0625, -0.125, 0.375, -0.0625, 0.125, 0.1875, 0.1875, -0.125, 0.1875, -0.125, 0.125, -0.125, 0.125, 0.125, -0.25, -0.0625, -0.125, -0.1875, 0.125, 0.125, -0.1875, 0.0625, 0.1875, 0.1875, 0.0625, 0.1875, 0.0625, -0.375, -0.375, -0.1875, 0.375, -0.25, 0.375, 0.875, 0.0625, 0.0625, 0.5, -0.4375, -0.0625, 0, 0.25, 0.5, 0.125, 0, 0.375, 0.1875, 0.125, 0.375, 0.5, 0.1875, 0, -0.1875, -0.0625, -0.1875, 0.25, 0.4375, 0.25, 0.0625, -0.0625, 0.25, -0.125, -0.25, -0.0625, 0.5, 0.0625, 0.3125, 0.0625, -0.25, 0.0625, -0.0625, -0.25, 0.0625, -0.125, 0.1875, -0.1875, -0.0625, 0.25, -0.1875, -0.125, -0.0625, 0, -0.5, -0.125, -0.1875, 0.0625, 0.25, -0.125, -0.25, -0.1875, -0.125, 0, -0.75, -0.375, -0.5625, 0.1875, -0.0625, 0.3125, -0.1875, -0.0625, 0.0625, -0.1875, 0, -0.25, -0.1875, -0.0625, -0.125, -0.25, -0.125, -0.1875, -0.0625, 0.1875, 0.0625, 0.1875, 0, 0.1875, 0.375, 0.1875, 0, 0, 0.0625, 0.0625, -0.0625, 0, -0.3125, -0.3125, -0.0625, -0.125, 0.0625, -0.25, -0.9375, -0.4375, 0.125, 0.1875, -0.4375, -0.3125, -0.125, -0.0625, 0.1875, -0.375, 0.25, -0.375, -0.5, -0.25, -0.1875, 0.25, 0, -0.3125, 0, 0.6875, -0.0625, 0.375, 0.25, -0.125, -0.0625, 0.25, -0.125, 0.125, 0.4375, 0.4375, 0.375, 0.4375, -0.25, 0.5, -0.25, 0, 0.125, 0.1875, -0.125, 0.25, -0.5, 0, 0.25, -0.125, -0.0625, 0.25, -0.125, 0, 0, 0.125, 0, 0.1875, -0.125, -0.1875, -0.1875, 0.375, 0.3125, 0.125, 0.125, 0.0625, 0.25, 0.25, -0.1875, 0.0625, -0.0625, 0.25, 0.1875, -0.125, 0, 0.25, -0.0625, 0.25, 0.1875, -0.1875, 0.25, 0.1875, -0.125, -0.125, 0.25, -0.125, -0.125, 0.4375, 0, 0.1875, 0.0625, 0.0625, -0.125, 0.1875, 0.0625, -0.0625, -0.0625, -0.375, 0.75, -0.125, 0.125, -0.1875, 0.1875, -0.0625, 0.25, -0.4375, -0.125, -0.125, 0.1875, -0.375, 0.125, -0.0625, 0.9375, 0.1875, -0.6875, -0.25, -0.375, -0.0625, 0.125, 0.4375, -0.0625, 0, -0.1875, -0.25, -1, 0.125, 0, -0.3125, 0.1875, -0.4375, 0.5, -0.125, 0.125, 1, -0.625, -0.9375, 0.5, -0.25, -0.1875, 0.375, 0.125, -0.25, -0.3125, -0.3125, -0.125, 0.3125, 0.25, -0.375, -0.0625, 0.125, 1.3125, -0.3125, -0.4375, 0, -0.6875, 0.6875, 0.25, -0.4375, -0.0625, 0.8125, -0.625, 0, -0.1875, 0.125, 0.5, 0.6875, -0.3125, 0.1875, -0.9375, 0.0625, 0.125, -0.375, 0.375, -0.1875, 0, 0.625, 0.5625, 0.125, -0.625, -0.125, -0.25, 0.3125, 0.1875, 0.125, 0.0625, -0.75, 0.625, -0.4375, 0.1875, -0.4375, 0.6875, -0.9375, 0.5, -0.25, 0.0625, 0.25, -0.5625, -0.625, -0.3125, -0.0625, 0.125, -0.125, -0.1875, 0.1875, -0.0625, 0.1875, -0.1875, -0.375, 0.25, 0.1875, 0.4375, -0.0625, -0.3125, 0.4375, 0, 0.125, -0.1875, 0, 0.1875, -0.3125, 0.25, -0.1875, -0.0625, 0.0625, 0.1875, 0.4375, 0.0625, -0.1875, -0.0625, 0, 0.375, 0.25, 0.1875, 0.0625, 0.1875, 0.375, -0.25, 0.25, 0, -0.1875, 0.0625, -0.3125, 0.375, 0.0625, 0.3125, 0.125, 0.4375, 0.1875, 0.1875, 0.3125, -0.1875, 0.125, -0.25, 0.125, 0.5, 0.25, 0.125, 0.4375, -0.0625, -0.0625, 0.25, 0.3125, -0.125, 0.25, 0.125, 0, 0.3125, -0.1875, -0.0625, 0, 0.25, -0.1875, 0.1875, 0.1875, -0.1875, -0.25, 0.3125, 0.0625, 0, 0.0625, -0.125, -0.0625, -0.125, -0.0625, 0.3125, -0.0625, -0.125, 0.125, 0.125, -0.4375, 0, -0.5, -0.125, -0.25, -1, 0.0625, 0.25, 0.0625, 0.125, -0.5, -0.125, 0.1875, -0.4375, -0.1875, -0.5625, -0.6875, -0.5625, 0.5, 0.375, 0.4375, -0.0625, 0.0625, 0, 0.125, -0.375, -0.1875, -0.1875, -0.3125, 0.125, -0.25, 0.125, -0.125, 0.25, -0.375, -0.125, 0.0625, -0.0625, 0.0625, 0.0625, 0.25, -0.3125, 0.0625, -0.4375, 0, -0.4375, -0.4375, -0.375, -0.3125, 0.375, -0.3125, 0.125, 0.75, 0.8125, 0.1875, -0.125, -0.25, -0.3125, 0.1875, 0.25, -0.625, 0.1875, -0.375, -0.0625, -0.5, 0.25, 0, 0.1875, 0, -0.5, 0.125, 0.125, -0.125, 0.1875, 0, -0.4375, 0.1875, 0.0625, -0.125, 0.125, 0.125, -0.3125, -0.0625, 0.5, 0.3125, -0.3125, 0.375, 0, 0.1875, -0.25, -0.0625, 0, 0.0625, -0.1875, 0.0625, 0.125 };

} // namespace hls4csnn1d_cblk_sd

#endif // QCSNET2_CBLK2_QCONV1D_WEIGHTS_H
