#ifndef QCSNET2_LBLK1_QLINEAR_WEIGHTS_H
#define QCSNET2_LBLK1_QLINEAR_WEIGHTS_H

#include <ap_fixed.h>
typedef ap_fixed<8, 4, AP_RND, AP_SAT> ap_fixed_c;

namespace hls4csnn1d_cblk_sd {

const int qcsnet2_lblk1_qlinear_IN_CH  = 1032;
const int qcsnet2_lblk1_qlinear_OUT_CH = 2;
const int qcsnet2_lblk1_qlinear_K      = 1;

static const ap_fixed_c qcsnet2_lblk1_qlinear_weights[2][1032] = { 0, 0.0625, 0, 0, 0, 0, -0.0625, -0.0625, 0, 0, 0.0625, 0, 0.0625, 0.0625, 0.125, 0, 0.0625, 0, 0.0625, 0.0625, 0.0625, 0, 0, -0.0625, 0, -0.125, 0.125, 0.0625, -0.0625, 0, 0, 0, -0.0625, 0, -0.0625, 0.0625, 0.0625, 0.0625, 0, 0, 0, 0, 0, -0.125, -0.0625, 0, -0.0625, 0, 0, 0, 0, 0, 0, 0, 0, 0.125, 0.0625, -0.125, 0, -0.125, -0.0625, 0.125, 0.0625, 0.1875, 0.0625, 0.0625, 0, -0.25, 0, 0, -0.0625, 0, 0.125, 0.25, 0.0625, 0, 0, 0.0625, 0, 0, 0.0625, 0.0625, 0.125, 0.0625, 0, 0.0625, 0.0625, 0.0625, 0, 0, 0, 0, 0, 0, 0, 0, 0.0625, 0, 0, -0.0625, 0, 0, -0.0625, -0.0625, -0.125, 0.125, -0.0625, 0.0625, 0, -0.0625, 0.1875, 0.125, -0.0625, 0, 0, 0.0625, 0.0625, 0, 0, 0, 0, 0, 0, 0, 0, 0, 0, 0, 0, 0.0625, 0.0625, 0.0625, -0.0625, -0.0625, 0, 0, 0, 0, 0, 0, 0.0625, 0.0625, 0.125, 0.125, 0, 0, -0.0625, 0.125, 0, 0, 0, 0.375, 0, 0.0625, 0.125, -0.0625, 0.0625, 0, 0, -0.0625, -0.0625, -0.0625, -0.0625, 0, 0, 0.0625, 0, 0, 0, 0, 0, 0, -0.125, -0.0625, -0.0625, -0.0625, -0.0625, -0.0625, -0.0625, -0.0625, -0.0625, -0.0625, 0, -0.0625, 0, 0.0625, 0.0625, 0.0625, 0.0625, 0.0625, -0.0625, -0.125, -0.3125, -0.1875, -0.125, -0.1875, -0.0625, -0.0625, 0.125, 0, 0, 0, 0, 0.0625, -0.0625, 0, 0, 0, -0.0625, -0.0625, -0.0625, 0, -0.0625, 0, -0.0625, 0, 0.0625, 0.0625, 0.0625, 0.0625, 0, 0.0625, 0, 0.0625, 0, 0.0625, 0, -0.0625, -0.125, 0, 0, -0.125, 0, 0.125, 0.0625, -0.0625, 0.0625, 0, 0, 0, -0.0625, -0.0625, -0.125, 0, -0.1875, 0, 0.0625, 0.0625, 0.0625, 0.0625, 0.0625, 0, 0, 0, 0, 0.0625, 0.125, -0.0625, 0, 0.0625, 0, -0.0625, -0.125, -0.125, 0, 0, -0.0625, -0.0625, -0.0625, -0.125, -0.1875, 0, -0.0625, 0.0625, 0.0625, 0.0625, 0.0625, -0.125, 0.125, 0, -0.0625, -0.0625, 0.0625, 0.0625, 0.125, 0.125, 0.0625, 0.0625, 0.125, 0, 0, 0, -0.0625, 0, 0, 0, 0, -0.0625, -0.0625, -0.0625, 0, 0, -0.0625, 0, 0.0625, 0, 0, 0, 0, 0, 0, -0.0625, -0.0625, -0.0625, -0.0625, 0.0625, 0.0625, 0, 0.0625, 0.125, 0, -0.0625, -0.25, -0.0625, -0.0625, -0.0625, 0, -0.125, 0, -0.0625, -0.0625, -0.0625, 0, 0, 0, 0, 0, -0.0625, 0, 0, 0.0625, 0, 0, 0, 0, 0, 0, -0.0625, 0.0625, 0.0625, 0, 0.0625, -0.0625, -0.0625, 0, 0, 0, 0, 0, 0, 0, -0.0625, 0, 0.125, 0.0625, 0, -0.125, -0.0625, 0.0625, -0.0625, 0, -0.0625, 0, 0, 0, 0, 0, 0, 0, 0, 0, -0.0625, -0.0625, -0.0625, -0.0625, 0, 0, -0.1875, -0.125, -0.0625, 0.0625, 0.125, 0.125, 0.1875, 0.1875, 0.0625, 0.0625, 0.125, 0.125, 0, 0, 0, 0.0625, -0.1875, -0.0625, 0, 0.25, 0.125, 0.0625, 0.0625, 0, 0.0625, -0.0625, -0.0625, -0.1875, -0.1875, -0.0625, 0.0625, 0.0625, 0, 0.0625, 0, 0, 0, 0, 0, 0, 0, -0.0625, 0, 0, 0, 0.0625, 0.0625, 0, 0, 0, 0, 0, -0.0625, -0.0625, 0, 0, 0, 0, 0.0625, 0, 0.0625, 0.0625, 0.0625, 0.0625, -0.0625, 0.375, 0.0625, 0.1875, -0.125, -0.125, -0.125, -0.1875, -0.0625, 0.0625, 0, 0, 0, 0, 0, 0, 0, 0, 0, 0, 0, 0, -0.0625, 0, -0.0625, -0.0625, 0, 0.0625, 0.0625, 0, 0, 0, 0.0625, 0.0625, 0, 0.0625, 0, -0.0625, -0.0625, 0.0625, 0, 0.125, 0.0625, 0, 0.1875, 0, 0.125, 0, 0, 0, 0, 0, 0, -0.0625, 0, 0, 0, 0, 0, 0, 0, 0, 0, 0, -0.0625, -0.0625, -0.0625, -0.125, -0.125, -0.125, -0.125, -0.0625, -0.0625, -0.0625, -0.0625, 0, 0.0625, 0, 0, -0.0625, -0.0625, -0.125, -0.0625, -0.0625, 0.0625, -0.0625, 0, 0.0625, 0.0625, -0.1875, 0.0625, 0.1875, 0.125, 0.125, -0.0625, -0.0625, -0.0625, -0.0625, 0, 0, 0, -0.125, 0, -0.0625, 0, 0, 0, 0, -0.125, 0.0625, 0, 0.0625, 0, 0, -0.0625, 0, -0.0625, 0, 0, 0, 0, 0, -0.0625, -0.0625, -0.125, -0.0625, 0, -0.125, 0.0625, 0.0625, 0, 0, 0.1875, -0.1875, -0.0625, 0, 0.0625, 0.0625, 0.1875, 0, 0, 0, 0, -0.0625, 0, 0, 0.0625, 0.0625, 0, 0, 0, 0.0625, 0, 0.0625, 0.0625, 0.125, 0, 0, 0.0625, 0, 0, -0.0625, 0, 0, -0.0625, 0, 0, 0.0625, 0.125, 0.1875, 0.3125, 0.0625, 0, 0, 0, 0.0625, 0.125, -0.125, 0, 0.125, 0.1875, 0.0625, 0, 0.0625, 0, 0, 0, 0, -0.0625, -0.125, -0.0625, -0.0625, 0, 0, 0.0625, 0, 0, 0, -0.0625, -0.0625, 0, 0, 0, 0, 0, 0, 0, 0, 0, 0, -0.0625, -0.125, -0.125, -0.0625, -0.1875, -0.0625, 0.0625, -0.4375, 0.125, -0.0625, 0.125, 0.0625, 0, 0.0625, 0.125, 0.0625, 0, -0.0625, 0, -0.0625, 0, 0, 0, 0, 0, 0, 0, -0.0625, 0, -0.0625, 0, 0, 0, 0, -0.0625, -0.0625, 0, 0, -0.0625, -0.0625, -0.0625, -0.0625, -0.0625, 0, -0.0625, -0.125, 0, -0.0625, 0, -0.1875, 0, 0, 0, 0.1875, 0, 0, 0.125, 0.0625, -0.0625, -0.0625, 0, 0, 0, -0.0625, 0, 0, 0, -0.0625, 0, -0.0625, -0.0625, -0.0625, 0, 0, 0, -0.0625, 0, 0, -0.125, -0.1875, -0.25, -0.125, -0.0625, 0, 0.1875, -0.0625, -0.125, 0.3125, 0.375, 0.125, 0.125, 0, 0.125, 0, 0.125, 0.1875, 0.125, 0.1875, 0.25, 0.125, 0, -0.0625, 0, -0.0625, -0.0625, -0.125, -0.125, -0.0625, -0.0625, 0, 0, 0.0625, 0.1875, 0, 0, 0, 0, 0, 0, 0, 0, 0.0625, 0, 0, 0, 0.0625, 0.125, 0.0625, 0, 0, 0.0625, 0.125, 0.0625, 0.1875, 0, 0.0625, 0.0625, 0.0625, 0, 0, -0.0625, -0.0625, 0, 0.0625, -0.0625, -0.0625, 0, 0, -0.0625, 0, 0.0625, 0, 0.0625, 0.0625, 0, 0.0625, 0, 0, 0, 0, 0, 0, 0, 0, 0, 0, 0, 0, 0, 0, 0, 0, 0.125, 0.0625, 0, 0, 0, 0, 0.0625, 0, -0.0625, 0, 0.0625, 0, 0, -0.0625, 0, 0, 0, 0, 0, 0, 0, 0, 0, 0.0625, 0.0625, 0, -0.125, -0.125, -0.0625, -0.0625, -0.0625, -0.0625, -0.0625, 0, 0.0625, 0, 0, 0, 0, -0.0625, 0, -0.0625, -0.0625, -0.0625, -0.0625, 0.0625, 0.0625, 0, 0, 0.0625, 0, -0.1875, 0.0625, 0.125, -0.125, 0.0625, 0, -0.1875, -0.0625, 0.0625, 0, 0.0625, 0.0625, 0, 0.0625, 0.0625, 0, -0.0625, 0, -0.0625, -0.0625, 0, 0.0625, 0, 0, 0, 0, 0, -0.125, -0.125, -0.0625, 0.0625, 0, 0, 0, 0, 0.125, 0.0625, 0.1875, 0, 0.0625, 0, 0, 0, 0.0625, 0, 0, 0, 0.125, 0, 0, -0.0625, 0.0625, 0, 0.0625, 0.0625, -0.0625, -0.0625, 0, -0.0625, -0.0625, 0, -0.0625, 0, 0, -0.0625, -0.0625, -0.0625, 0, 0, 0, -0.0625, -0.0625, 0, -0.0625, 0, 0.0625, -0.0625, 0, 0, -0.0625, -0.0625, -0.1875, -0.1875, 0, -0.125, -0.125, -0.1875, -0.0625, 0.125, 0, 0, 0, 0.0625, 0, 0, 0, 0, -0.0625, 0, -0.0625, 0, 0, 0, 0, -0.0625, -0.0625, 0, 0, 0, 0, 0, 0, 0, 0.0625, 0.0625, 0.0625, 0, 0, 0.0625, 0.0625, 0.0625, 0.0625, 0, 0.0625, -0.0625, 0.1875, -0.0625, 0.0625, 0, 0.0625, -0.0625, 0.0625, 0.0625, -0.125, 0.0625, 0.0625, 0, 0, 0.0625, 0.0625, 0.0625, 0.125, 0.125, 0.125, 0.0625, 0, -0.0625, -0.125, 0, -0.0625, 0, 0, 0, 0, 0.0625, 0, -0.0625, -0.0625, -0.0625, 0, -0.0625, -0.0625, -0.0625, 0, 0, 0, -0.0625, -0.0625, -0.0625, 0, -0.0625, 0.0625, 0, 0.0625, -0.125, -0.0625, 0.0625, 0, 0, 0, 0.0625, 0, 0.0625, 0, -0.0625, -0.0625, -0.0625, 0.0625, -0.0625, 0, -0.0625, 0.1875, 0, 0, -0.0625, 0, -0.125, -0.0625, -0.0625, -0.0625, -0.0625, -0.0625, -0.0625, -0.0625, -0.0625, 0.125, 0.0625, 0.125, 0.0625, -0.0625, -0.0625, -0.125, -0.0625, 0, 0, 0.1875, 0, 0.0625, 0.0625, 0.0625, 0, -0.1875, 0, 0, 0, -0.0625, 0, -0.0625, 0, -0.0625, -0.0625, 0, 0, -0.0625, -0.0625, 0, 0, 0, 0, 0, 0, -0.0625, -0.0625, -0.0625, 0, 0, 0, 0.0625, 0.0625, 0.0625, 0.0625, 0.0625, 0.0625, 0, 0.0625, -0.0625, -0.0625, 0.125, -0.375, -0.1875, 0, -0.0625, 0, -0.125, -0.0625, 0.0625, 0, 0, 0, 0, 0, 0, 0, 0, 0, 0, 0, -0.0625, -0.0625, 0, 0.0625, 0.0625, 0, 0, 0, 0.0625, 0, -0.0625, -0.0625, -0.0625, -0.125, -0.125, 0, 0, 0.0625, -0.0625, -0.0625, 0.0625, 0.0625, -0.375, 0, -0.0625, -0.0625, 0.0625, 0, 0, 0.0625, 0.0625, 0.0625, 0.0625, 0.0625, 0, 0, 0, 0, 0, 0, 0, 0, 0.0625, 0.0625, 0, 0.0625, 0.0625, 0.0625, 0, 0.0625, 0.0625, 0.125, 0.0625, 0, 0.0625, 0, 0, -0.0625, 0, -0.0625, 0, 0.0625, 0.0625, 0.3125, 0.1875, 0.125, 0.25, 0, 0.0625, -0.125, -0.0625, 0, 0, 0, -0.0625, 0, 0, 0.0625, 0, 0.0625, 0.0625, 0.0625, 0, 0, 0.0625, 0.0625, 0, 0, 0, -0.0625, -0.0625, 0.0625, 0, -0.0625, -0.0625, 0, -0.0625, 0, 0.0625, 0.125, 0.0625, 0, 0.125, -0.125, -0.0625, -0.0625, 0, -0.0625, 0, 0, -0.0625, 0.0625, 0.125, 0.125, 0, 0.0625, -0.0625, 0.0625, 0, 0, -0.0625, -0.0625, 0, 0.0625, 0.0625, 0.0625, -0.0625, -0.0625, 0, 0, 0, 0, 0.0625, 0.0625, 0.125, 0, 0, 0.0625, 0.0625, 0.0625, 0.125, 0.0625, 0.0625, 0.0625, 0, 0, -0.0625, -0.125, 0.0625, -0.0625, 0.0625, 0.125, 0.0625, -0.0625, -0.0625, -0.125, -0.125, -0.0625, -0.0625, -0.125, -0.0625, 0, 0.0625, 0.0625, 0.0625, 0, 0.0625, 0, 0.0625, 0, 0, 0, 0, 0, 0, -0.0625, -0.0625, 0, 0, 0, 0, 0.0625, 0.0625, 0.0625, 0.0625, 0.0625, 0, -0.0625, 0, -0.0625, -0.0625, 0.0625, 0, 0.3125, 0.125, 0.0625, 0.0625, 0.0625, 0.125, 0, 0, 0.0625, 0.0625, 0, -0.0625, 0, 0, 0, 0, 0, 0, 0, 0, 0, 0, 0, -0.0625, 0, 0, -0.0625, -0.0625, 0, 0, 0.0625, 0.125, 0.0625, 0, 0, 0, 0, 0.0625, 0, 0.0625, 0, -0.125, -0.1875, 0.0625, 0.1875, 0, 0, 0.0625, 0, 0, 0, 0, 0, 0, -0.0625, 0.0625, 0.0625, 0, 0.0625, 0, 0.0625, 0.0625, 0.0625, 0, 0, 0.25, 0.125, 0.0625, -0.0625, -0.0625, -0.0625, -0.1875, -0.1875, -0.0625, -0.0625, -0.0625, -0.0625, 0, 0.0625, 0, 0, 0.125, -0.0625, 0, -0.1875, 0, -0.0625, -0.0625, 0, -0.125, 0, 0.0625, 0.125, 0.125, 0.0625, -0.0625, -0.0625, 0, -0.0625, 0, -0.0625, -0.0625, -0.0625, -0.0625, -0.0625, 0, 0, -0.0625, 0, -0.0625, -0.0625, -0.0625, -0.0625, 0, 0, 0, 0, 0.0625, 0.0625, 0, 0, 0, -0.0625, 0, 0.0625, 0, 0, -0.0625, -0.0625, 0.0625, -0.4375, -0.125, -0.1875, 0.0625, 0.0625, 0.0625, 0.125, 0.0625, 0, 0, 0, 0, 0, 0, 0, 0, -0.0625, 0, 0, 0, 0, 0.125, 0.0625, 0.0625, 0.0625, 0, 0, -0.0625, 0, 0.0625, 0, 0, 0, 0, -0.0625, 0, 0, 0.0625, 0, 0.0625, -0.0625, -0.0625, 0, -0.25, 0, -0.0625, 0, 0, 0, 0, 0, 0.0625, 0, -0.0625, 0, 0, 0, 0, 0, 0, 0, 0, 0, 0.0625, 0.0625, 0.0625, 0.0625, 0.0625, 0.1875, 0.0625, 0, 0, 0.0625, 0, 0, 0, 0, 0, 0.0625, 0, 0.0625, 0.0625, 0.125, -0.0625, 0.0625, 0, -0.0625, -0.0625, 0.25, -0.25, -0.0625, -0.0625, -0.0625, 0.0625, 0.1875, 0.0625, 0.0625, 0, 0, 0, 0, 0.0625, 0.0625, 0, 0, 0, 0, 0.1875, 0, 0, 0, -0.0625, -0.0625, 0, 0, -0.125, -0.125, -0.0625, 0, 0, 0, 0.125, 0.125, 0.125, 0.125, 0, 0.0625, -0.0625, 0, 0, 0, -0.125, 0.3125, 0.0625, 0, -0.0625, -0.0625, -0.125, -0.0625, 0, 0, 0, 0.0625, 0, -0.0625, -0.0625, -0.0625, 0, 0, 0.0625, -0.0625, 0, -0.0625, -0.0625, -0.0625, 0, 0, 0, -0.0625, 0, 0.0625, 0, 0, 0.0625, 0.0625, 0.0625, -0.0625, -0.0625, -0.125, -0.1875, -0.0625, 0.0625, 0, 0, -0.0625, -0.0625, 0.0625, 0, -0.0625, -0.125, -0.0625, -0.0625, 0, 0, 0, 0, 0, 0, 0.0625, 0.0625, 0, 0, 0.0625, 0, 0, 0, 0, 0.0625, 0.0625, 0, 0, 0, 0, 0.0625, 0, 0, -0.0625, 0, 0, 0.0625, 0.125, 0.125, 0.125, 0.0625, 0, -0.0625, 0.4375, -0.125, 0.0625, -0.125, -0.0625, 0, -0.0625, -0.0625, 0, 0.0625, 0, 0, 0, 0, 0, 0, 0, 0, 0, 0, 0.125, 0.0625, 0.0625, 0.0625, 0.0625, 0.0625, 0.0625, 0.0625, 0, -0.0625, -0.0625, 0.0625, 0.0625, 0.0625, 0.0625, 0.125, 0.125, 0.0625, 0.125, 0, 0.0625, 0, 0.25, 0.0625, 0.0625, 0, -0.1875, -0.0625, 0, -0.0625, 0, 0.0625, 0, 0.0625, 0.0625, 0, 0.0625, 0, 0, 0, 0.0625, 0, 0.0625, 0, 0, -0.125, -0.0625, 0.0625, 0, 0, -0.0625, 0.0625, 0.1875, 0.125, 0, 0.0625, 0, 0.0625, 0.0625, 0.0625, -0.25, -0.25, -0.0625, -0.0625, 0, -0.125, 0, -0.1875, -0.0625, -0.0625, -0.0625, -0.125, -0.0625, -0.0625, 0, 0, 0, 0.0625, 0.0625, 0.0625, 0, 0, 0, 0.0625, 0.0625, 0.0625, 0.125, 0, 0, 0, 0, 0, 0, 0, -0.0625, -0.0625, 0, -0.0625, -0.0625, -0.125, -0.0625, -0.0625, 0, 0, -0.125, -0.0625, -0.125, 0, -0.0625, -0.0625, -0.125, -0.0625, 0, 0.0625, 0, 0.0625, -0.0625, 0.0625, 0, 0, -0.0625, -0.0625, 0, 0, -0.0625, 0, -0.0625, -0.0625, -0.0625, 0, 0, 0, 0.0625, 0, 0, 0, 0, 0.0625, 0, 0, 0, 0, 0, 0, 0, -0.0625, -0.0625, -0.0625, 0, 0, 0, -0.0625, -0.0625, 0.125, 0, 0, 0, 0, 0, 0.0625, 0, 0, 0, 0, 0, 0, 0, 0, -0.0625, 0, 0, 0.125, 0.125, 0.0625, 0.0625, 0, 0.0625, 0, -0.0625, -0.0625, 0, 0, 0.0625, 0.0625, 0.0625, 0, 0.0625, 0.0625, 0, 0, 0, -0.0625, 0, 0, -0.0625, 0.125, 0.0625, -0.0625, -0.125, 0.125, -0.0625, 0.0625, 0.125, 0, -0.0625, -0.0625, -0.0625, -0.0625, 0, -0.0625, 0, 0, 0.0625, 0.0625, 0.0625, 0.0625, 0, -0.125, 0, 0, -0.0625, 0, 0.0625, 0, 0, 0, 0, 0.0625, 0.0625, 0.0625, 0, -0.1875, -0.1875, -0.25, -0.0625, -0.0625, 0, 0, 0, -0.0625, 0.0625, 0, 0.0625, -0.125, -0.0625, -0.0625, 0, -0.0625, -0.0625, 0, 0, 0.0625, 0.0625, 0.0625, 0.125, 0.125, 0.0625, 0.0625, 0, 0, 0.0625, 0.0625, 0.0625, 0.0625, 0, 0.0625, 0, 0, 0, 0, -0.0625, -0.0625, 0.0625, -0.0625, 0, 0.0625, 0.125, 0.1875, 0.25, 0, 0.1875, 0.0625, 0.125, 0, -0.125, 0, 0, 0, 0, 0.0625, 0, 0, 0, 0, 0, 0, 0, 0, 0, 0, 0.0625, 0.125, 0, 0, 0, 0, 0.0625, 0, 0, 0, -0.0625, -0.0625, -0.0625, 0, -0.125, -0.125, -0.0625, -0.125, 0, -0.0625, 0, -0.125, 0.0625, -0.0625, 0, -0.0625, 0.0625, -0.125, -0.0625, 0.125, 0, -0.125, 0, 0.0625, -0.0625, -0.0625, -0.0625, -0.125, -0.125, -0.125, -0.0625, 0, 0, 0.125 };

} // namespace hls4csnn1d_cblk_sd

#endif // QCSNET2_LBLK1_QLINEAR_WEIGHTS_H
