#ifndef QCSNET2_QFX_LBLK1_QLINEAR_WEIGHTS_H
#define QCSNET2_QFX_LBLK1_QLINEAR_WEIGHTS_H

#include <ap_fixed.h>
// Q-format collapse
// Learned per-channel Î: [4]
// Exported I_layer = 4
using qcsnet2_qfx_lblk1_qlinear_fx = ap_fixed<8, 4, AP_RND, AP_SAT>;

namespace hls4csnn1d_cblk_sd {

static const qcsnet2_qfx_lblk1_qlinear_fx qcsnet2_qfx_lblk1_qlinear_weights[2][1032] = { 0.008511221036, -0.002795947716, 0.007415602915, 0.03523187712, 0.04384406656, 0.04442726076, 0.002255156869, -0.009128987789, 0.03004859574, 0.02558161691, 0.03332478926, -0.01010651607, -0.03104147501, -0.001531109097, 0.01512140501, 0.02784229629, -0.05554183573, -0.04176418483, -0.03207321838, 0.02426117845, -0.05866437405, 0.1821224689, -0.01466132328, -0.005794966593, -0.0499513559, -0.03255920485, 0.01542101894, -0.04648980498, -0.01936839707, -0.03118158132, 0.04165048525, 0.04976969957, 0.023557676, 0.03007754683, 0.005221930798, 0.02620363981, 0.03041557036, -0.02580251731, -0.004208388738, -0.001287867548, -0.01799408533, 0.02701359801, -0.006020435132, -0.003648708807, 0.001705481205, -0.01910180598, -0.03699746728, -0.005181815475, 0.01827396639, 0.03176443651, 0.05481505767, 0.04691442847, 0.0402048938, 0.03348480538, -0.02357040159, -0.03682847694, -0.01582552493, -0.01468410902, -0.007380588911, -0.109831728, -0.1087941229, 0.07351955026, -0.04194611311, 0.008447551169, -0.09820247442, -0.03606090695, 0.03326861188, 0.1197025701, 0.1677687764, 0.3428809047, -0.04801195487, -0.06141164154, 0.04817152023, 0.1166452765, -0.001437033061, -0.0570051223, -0.02514660731, -0.02555920184, -0.00599740725, -0.01084445138, -0.02015736327, -0.01760954782, 0.02069910057, 0.04925136268, 0.07771935314, 0.1144417077, 0.005302687176, -0.01954068802, -0.001642668387, -0.04522591084, -0.004501184914, -0.04529146478, -0.06944852322, -0.04371519759, 0.01983404905, -0.01380054373, 0.06318178773, 0.0518755652, 0.01788414456, 0.03693766519, 0.07905203849, 0.04843753949, -0.02562575974, -0.007937128656, 0.2938478291, 0.2165832818, -0.3185484409, -0.02323313057, -0.03830494359, 0.02783512138, 0.003245426575, -0.08071941137, -0.002765936544, 0.1549779326, 0.04471146688, -0.08303136379, 0.01450227574, 0.1158697009, -0.03158037364, -0.03223407641, 0.02748288214, 0.009489490651, 0.01912859641, -0.01673960872, -0.03846742585, -0.04646696523, -0.03621115908, -0.03211077303, -0.07122658938, 0.03509695455, 0.0524065569, 0.03073219955, -0.003663777141, 0.01423312631, -0.0006479420117, -0.02230159752, 0.02764781006, 0.04530305788, 0.04886787757, 0.06148974597, 0.03358800709, 0.04060169309, 0.01927993447, 0.03639984876, -0.01350677293, -0.06667003036, 0.002914900426, 0.1072645485, 0.06911949068, 0.1722039878, 0.04750836268, 0.07181501389, 0.02479365095, -0.02394035272, -0.01925094053, -0.08275402337, 0.01331574749, 0.01379630435, 0.0297068581, 0.03252262995, 0.04181924462, 0.01207538601, -0.02406041883, -0.02726348303, 0.003056244692, 0.001252353541, -0.01069073938, 0.002501726151, 0.03794775158, -0.006688612979, 0.03290744126, 0.01479479298, -0.01618992724, -0.009829392657, -0.0608895123, -0.04499623179, -0.05242246389, -0.05390598252, -0.03380607069, -0.02896766923, -0.04722674564, -0.05344723165, 0.04611513391, 0.01579930447, -0.0110008698, 0.08835068345, 0.06272055954, 0.02001440525, 0.05708236992, 0.2508289218, 0.3029876947, -0.1760611832, -0.05505779758, 0.1019255221, -0.06281150877, 0.2658007741, 0.1052113771, -0.0946553424, 0.03710639477, 0.03982963786, -0.1149979457, -0.02902354486, 0.04457129166, -0.02828363888, -0.08386276662, -0.01143044326, 0.02118744329, -0.009883505292, -0.005681512877, -0.01437043678, 0.0220472645, 0.03341340274, -0.0002963955048, -0.01979522593, -0.09641932696, 0.02925018594, 0.04664203525, 0.01620323583, 0.01636171341, 0.03258112073, 0.04105466977, 0.04053737223, 0.00625051558, 0.005374762695, -0.001961068716, 0.02289140038, 0.03377489001, 0.02627975866, 0.08257996291, 0.0985776037, 0.04317322746, -0.06721458584, 0.03999743611, 0.1581339538, 0.06214502454, 0.07685979456, -0.03364735842, -0.03390552849, 0.195499897, 0.1465659589, 0.2020139098, -0.0352287814, -0.06943009049, -0.07459652424, -0.05353123695, -0.06826550514, 0.0102130305, 0.01500198897, -0.02506605163, 0.009014872834, 0.03645993769, -0.01035129279, 0.05444640294, 0.0461483039, 0.0446677655, 0.09831351787, 0.06548516452, 0.007093325257, -0.09026293457, -0.07132430375, -0.04416812211, 0.01645364054, 0.02207708918, 0.04306516424, 0.07864260674, 0.06394572556, 0.05425304547, 0.094541125, 0.01343711186, 0.05057695508, 0.03062879667, -0.04051337391, -0.04375849292, -0.03785781562, 0.03508987278, -0.0533143878, -0.03956391662, 0.109551549, -0.07607557625, 0.03701300547, 0.05503097549, -0.01659783535, 0.01953054778, -0.01190708112, 0.0582701005, 0.016878644, 0.1349794567, 0.09658492357, -0.03118250147, 0.00123592536, 0.06045765057, 0.01783528365, -0.004617050756, 0.002253731713, 0.005061618518, 0.01697939262, -0.02892946638, 0.03166335449, -0.0006417874247, -0.03162719682, -0.04957037792, -0.03253807127, -0.01866626367, 0.07603567094, 0.157569468, 0.1022039726, 0.05969272554, -0.005118725356, -0.135385856, -0.1819694042, -0.1909481138, -0.1737127602, -0.09300167114, -0.1296697408, -0.02518153936, 0.1726034731, 0.2588503659, 0.2076883465, 0.1207937077, 0.3495011032, 0.5812241435, -0.1283407956, -0.03176025301, -0.1388169527, -0.03133570403, 0.03559015691, 0.04150443152, -0.2400829494, 0.0008882621769, -0.07265704125, -0.297141999, -0.2738762796, 0.160722971, 0.1972793192, 0.02843548357, 0.03930578008, 0.06156508625, -0.03070908785, -0.05062662438, -0.03353578597, -0.0304248929, -0.05439986661, -0.0934547931, -0.1857111901, -0.03318919241, 0.01072482951, 0.01907185465, -0.02331592701, -0.02957256138, -0.01920137927, -0.0156654194, -0.03532791138, -0.009443504736, 0.07099597156, 0.100387603, 0.1020745039, 0.08825315535, 0.1408776641, 0.09460943192, 0.1654067338, 0.1557507366, -0.07955411822, 0.05214573443, 0.2016334534, -0.06562342495, -0.04093010724, -0.02995898202, -0.04230581969, 0.08150725812, 0.1683366448, 0.1834959537, 0.03123115562, 0.01074321754, -0.09433087707, -0.2300472558, -0.03915344551, -0.006279360969, 0.006305776536, -0.01263056323, 0.03404176235, -0.01535337139, 0.007783561945, -0.004839789122, 0.01520257629, -0.03906143084, -0.07626472414, -0.1590684801, -0.005517745856, 0.01729510911, -0.01675312407, -0.01117677521, -0.03227428719, 0.01385527384, 0.03039764985, 0.001189197181, -0.02168314345, 0.01469522528, 0.01495554112, 0.03275651485, -0.01600318775, -0.03293985128, 0.01279804856, 0.04402542114, 0.05277099088, 0.050059136, 0.03421081603, 0.1562826782, -0.06925649941, -0.09374848753, 0.1001419052, -0.01079780329, 0.03439000249, 0.06693336368, -0.08965834975, -0.03037410416, 0.08008945733, -0.004509270191, -0.1043607891, -0.02538572252, 0.02231512964, -0.03031437099, -0.05305604264, -0.003158057807, 0.008447469212, -0.003968947567, -0.02540711313, -0.006793067325, -0.03004208207, -0.03175301477, -0.02618115768, -0.00430599926, -0.00841549132, -0.003712742822, -0.009438344277, -0.02372493595, -0.01000524499, -0.03205294162, -0.003366619349, 0.05548172817, 0.1123478264, 0.09923834354, 0.07042131573, 0.06893997639, 0.08856222779, 0.04172355682, 0.0004987986176, -0.06557489187, -0.1298725456, -0.1138824224, 0.1055309922, -0.1690218151, 0.05296403542, -0.01313035842, 0.01296404377, -0.05925697461, -0.1217965633, -0.02057109773, -0.1005812287, -0.04833805189, -0.03935030103, -0.09613244236, -0.01129154395, -0.03130539879, -0.02970180288, -0.03063809872, 0.01365707722, 0.04025492072, 0.01177216973, -0.0002159716096, 0.02200444043, -0.004525431432, 0.004761144053, -0.05251313373, -0.0218447838, -0.0214700494, -0.02234452404, -0.03620744497, -0.03445307165, -0.0008749900153, -0.02465512417, -0.02561330423, -0.01251855772, 0.02184382826, 0.03745510057, 0.05042368919, 0.03800434247, 0.04157183692, 0.0467582345, 0.0570570603, -0.01026057731, -0.02751992457, 0.1504687965, 0.1955222189, -0.1448591799, -0.1598912328, 0.0518123731, 0.01019208878, 0.02488426492, 0.1630103737, -0.02233324759, -0.03737715259, -0.01180365775, -0.1117221266, -0.1615469903, -0.03400591388, -0.00428956002, -0.03416865692, 0.009501997381, 0.03178840876, -0.01311353501, 0.01691967994, 0.03499925882, 0.03372751921, 0.0280447416, -0.03543823585, -0.09516053647, 0.04760339111, 0.03062856942, 0.01142809819, -0.02956422232, -0.03272498026, -0.06202866137, -0.09384779632, -0.03539931029, -0.02567661367, 0.02523834258, 0.05527893081, 0.0393107757, 0.02946722694, 0.02622403204, -0.002411865862, 0.04414466396, 0.0312599279, 0.09002818167, 0.07948344201, 0.05825545266, -0.03746942803, 0.03027819097, 0.03089499474, 0.1028942317, -0.1362929344, 0.05600906536, -0.06716514379, 0.03481769189, 0.06373708695, 0.1005031988, 0.05853764713, 0.05137300491, -0.03106793202, -0.03434719518, -0.01767881215, -0.03062276728, -0.03140851483, -0.0302920714, -0.03555469215, -0.03909812495, -0.07314527035, -0.04167774692, -0.06484942138, 0.0591150187, 0.02080450021, 0.009395501576, -0.03319191188, 0.01668480597, 0.03757059574, 0.01590477303, -0.0326285027, -0.02913006023, -0.03872749582, -0.03122604638, -0.03885192052, -0.03958350793, -0.00656190794, -0.02638458833, -0.04797047004, -0.159457013, -0.1408365816, 0.1908069104, 0.2075922638, 0.07822933048, -0.010356538, 0.1704858989, 0.2226560116, 0.1198718846, -0.0708180815, 0.004378222395, -0.06959296763, -0.09852796048, -0.1511469632, -0.03840000927, -0.007281194441, 0.006392344367, 0.02104080468, 0.02768609114, 0.02630891837, 0.03274285048, 0.04800858721, 0.04995285347, 0.03716121987, 0.0641938448, 0.04997962341, 0.08279946446, -0.1564547718, -0.1604519635, -0.1929057539, -0.1167481393, -0.09434140474, -0.02291078493, 0.04703398049, 0.07818568498, 0.08395745605, 0.1035235226, 0.1158204973, 0.05382875353, 0.05912432447, 0.09147210419, -0.07999652624, -0.09786007553, -0.09564745426, -0.03694424033, -0.06202576682, -0.1441342831, 0.1247461513, 0.1108202115, 0.08931454271, 0.1333611459, -0.1638230979, 0.08758997917, 0.1459974498, -0.1155772954, -0.07718965411, 0.004633657169, -0.1069781855, -0.1472601146, -0.04112260789, 0.02371875197, 0.000561191875, 0.04183062166, 0.03127108142, 0.07814382017, 0.09293692559, 0.09428801388, 0.001401006477, -0.08249837905, -0.1069414988, 0.005492695142, 0.00807031896, 0.01514557749, -0.0001438597683, -0.03628359735, -0.05925654247, -0.0707705915, -0.05540134385, 0.006903754082, -0.005363923497, 0.04844459519, 0.07245905697, 0.07404776663, 0.06009409577, 0.1168209538, 0.07085692883, 0.02318306826, 0.09573819488, 0.04894046485, -0.01245487109, -0.0738755241, -0.07912441343, 0.08443847299, -0.04148932174, 0.03019630164, -0.133176133, -0.1756178141, 0.02084384859, 0.09430664778, 0.08243575692, 0.02649264224, -0.01317390986, -0.04291885719, -0.07716299593, -0.05374472588, -0.03781901672, -0.01181364991, -0.03748510778, 0.01596211642, 0.01211596746, 0.04481009766, 0.06887917221, 0.01623756625, -0.1529851407, -0.09465828538, -0.08983016759, -0.02026458643, 0.06032383069, 0.1405635476, 0.1552612633, 0.1431355178, 0.09325547516, 0.0977512747, 0.03180968389, -0.02343785577, -0.01371475775, -0.09651190042, -0.1930823177, -0.1358536184, -0.1182721257, -0.2067848891, -0.1130465344, 0.007121531293, 0.4397755861, -0.01758102141, 0.05335617438, -0.04030804709, -0.09931544214, 0.02158328705, 0.03357901797, -0.09348779172, 0.05450866371, 0.02364933118, -0.1064079106, -0.1795581579, 0.03365051001, 0.04935269803, 0.01217584964, 0.06150207296, 0.0479019098, 0.06005856395, 0.05842606723, 0.02200633287, 0.0180941876, -0.02576348558, -0.001441332861, 0.01834933273, 0.02819007449, 0.04134424031, 0.03226294369, 0.0189169161, 0.009469533339, -0.0287804585, -0.08439854532, -0.1056196243, -0.09618746489, -0.1173954979, -0.09014032781, -0.08701551706, -0.04540707171, 0.05340288579, 0.1685480177, 0.2094159424, 0.217520684, 0.2098542005, 0.2163413614, -0.1131836474, 0.2286995947, 0.007227304392, -0.02837380953, 0.09814087301, 0.05712610111, 0.02125350758, -0.2229548693, -0.07644852251, -0.1263144463, -0.1351654679, 0.01494262088, 0.07610685378, 0.03252692893, 0.03206306696, 0.008320776746, -0.02234927379, -0.04495270923, -0.05342769995, -0.02406906895, -0.03378104046, -0.05096893758, -0.07031873614, -0.0005537270918, -0.01923237741, 0.004830032587, -0.02653568983, -0.008936786093, 0.009126831777, 0.0312312115, -0.05908613279, -0.082717143, -0.03612355515, -0.07028751075, -0.0260317605, -0.03879088908, 0.03470945358, 0.1573445648, 0.2553018034, 0.1735807657, 0.1346121579, 0.2242033333, 0.1593641937, -0.1837255508, 0.1571722031, -0.0132800173, 0.07229951024, 0.1365049332, 0.1621337831, 0.2178422511, -0.07772609591, -0.01840245351, -0.1435692608, -0.2258128375, -0.01352956984, 0.03218198195, 0.004838225897, -0.01238288824, 0.01447827742, -0.02039893903, -0.03197951242, -0.0128717348, 0.02148122527, -0.01387502998, -0.02735421434, -0.1211460009, -0.01222205348, 0.01481527369, 0.002754044952, -0.05265296623, -0.05083885044, -0.07446104288, -0.05330685154, -0.01983431727, 0.06269905716, 0.1022439376, 0.1034525484, 0.1379026622, 0.08654721081, 0.07561458647, 0.1081256792, 0.09010926634, 0.02212215401, -0.00518929353, 0.05348656327, 0.1765091717, -0.002100563375, -0.1764630675, 0.0856109485, -0.2340948433, -0.0251227431, -0.09548162669, -0.09795200825, 0.007430759259, 0.1251817048, 0.01157922298, -0.02910182625, -0.02477381751, 0.03076242842, -0.03569718078, -0.004384202883, 0.03007848933, -0.009611467831, -0.02756071091, -0.03089269251, -0.02950560674, -0.03030388802, -0.04714208841, -0.1358660609, -0.03688343614, -0.03109978326, -0.1273217797, -0.1539167464, -0.1483546942, -0.09594941884, -0.0565754734, 0.01336143166, 0.02674328536, 0.1427228749, 0.2154032141, 0.1382114738, 0.1628532112, 0.1537339687, -0.03402498364, -0.04042500257, 0.06573231518, 0.08677443862, -0.08552145213, -0.2034316659, 0.191255182, -0.05978485197, 0.08697651327, 0.1536504179, -0.1974341869, 0.2295029908, 0.03970372677, -0.01778619923, 0.03162435442, 0.1559434533, -0.06447545439, -0.1616853327, -0.07820459455, 0.006126240827, -0.001435818383, 0.02556908876, 0.0312068779, 0.04535095766, 0.04040327296, 0.08585862815, -0.0005452822079, -0.09159966558, -0.1684860438, -0.03055679798, 0.03332771361, 0.01215215493, 0.003736009356, -0.03467491269, -0.03547571599, -0.01046263427, -0.02611601911, -0.005892933812, 0.05089045316, 0.04530601576, 0.07334626466, 0.0313289687, 0.03213592619, 0.03472061455, -0.02788862959, -0.03684212267, -0.007280929945, -0.01980747096, -0.1490991563, 0.02282622643, 0.009624407627, 0.1260264218, -0.1629360914, 0.05202076584, -0.1672690958, -0.08803348243, -0.08594374359, -0.006861860398, -0.01776111498, -0.02405545674, -0.03132558241, 0.0251737237, -0.003588131163, -0.01252407581, 0.03243513033, 0.01596212015, 0.05290915444, 0.06349174678, 0.03707240894, 0.02726099081, 0.03118474036, -0.03138208017, -0.03263098001, 0.01108929515, -0.0136371227, 0.0004321480519, 0.03670333698, 0.01666607335, 0.02369304933, 0.005731307436, -0.0510805212, 0.000518664252, -0.05109390616, -0.1097298414, -0.09107038379, -0.1082105413, -0.09947579354, -0.1231345236, -0.1487199962, -0.0413928926, 0.1183022484, 0.2733314335, 0.2777859569, 0.1515821368, 0.1067562476, -0.05756689608, 0.2119206339, 0.05499687791, 0.01640768908, -0.2426067144, -0.1535393894, -0.1563472301, -0.1721942723, -0.1194136366, 0.04209237173, 0.01848615706, -0.006177771371, 0.01501266006, -0.04104220122, -0.00420042593, 0.04796136916, 0.06236468628, 0.03620086238, 0.07528991252, 0.009527105838, -0.06600472331, -0.08733186871, -0.07541035116, -0.02435214631, 0.0236886926, 0.08850295097, 0.08029206097, 0.03487550467, 0.0195465181, -0.004272459075, -0.007781594992, -0.02008142509, -0.07087600231, -0.01869823225, -0.003939266317, -0.04307436198, -0.2067944407, -0.0261261072, 0.2463864237, 0.2205037624, 0.09097270668, -0.03636636212, 0.004040071741, 0.1612891406, 0.1107463762, 0.1154026464, -0.08727597445, -0.03801000863, -0.08068384975, -0.1536394209, -0.1456980258, 0.02065999992, 0.01549312565, -0.01208594255, 0.01487927698, 0.01551074255, 0.03082213551, 0.05729686469, 0.05339148268, 0.04202929512, 0.04475824535, 0.01746641658, -0.03393564746, 0.02586458065, 0.01077366341, 0.01281752624, 0.005574572831, -0.02324056812, 0.01684941165, 0.04039918259, 0.007444690447, 0.01081192121, -0.02636264823, -0.03410207853, 0.00673470227, -0.02836200036, -0.01799821295, -0.02168454975, -0.02633292228, 0.08499442041, 0.03648324683, 0.03757312894, -0.05245264247, 0.03439508379, -0.2220815569, -0.04594760761, -0.02497828007, 0.1352909505, 0.03096952848, 0.03402563184, 0.08687577397, -0.05626112968, -0.01509559061, -0.1162291244, -0.1469724327, -0.01147015952, -0.0125103863, -0.04173353687, -0.02948027104, 4.96705652e-05, -0.02005572617, 0.009813806042, 0.01788179763, 0.03954459354, 0.02555949427, 0.02588692866, -0.05802258849, -0.03094288707, -0.0120176794, 0.03873432055, 0.009649733081, 0.0149380276, -0.00673816679, -0.04997790232, -0.05521331728, -0.004019096959, -0.01114167366, 0.01671223156, 0.01534280647, 0.01346617192, 0.004150670487, -0.02092890814, 0.1853810251, 0.1972906142, -0.02782501094, 0.02679023333, 0.02934360877, 0.03933813795, -0.05616718531, -0.1046474129, -0.1359924972, -0.2770861685, -0.4352500439, 0.03648722917, -0.007799661253, -0.05789462849, -0.06800878048, 0.04366263375, 0.07388371974, 0.03049027734, 0.03485693783, 0.01906545646, 0.01742892712, -0.03227946907, -0.03059907816, -0.0322589986, -0.03259237856, -0.07955367118, -0.09739840776, 0.02643916197, 0.03143353388, -0.03530791774, -0.01122746617, -0.008288700134, 0.05759676173, 0.04457405955, 0.01351596974, -0.02550761215, -0.002422238467, -0.0159586519, -0.02603188716, 0.02521331795, -0.006087438203, -0.01675596833, -0.005556049757, -0.05734602734, -0.1077312455, -0.1487604827, -0.2195474356, 0.1747051477, 0.09392048419, 0.0313424468, 0.03032340482, 0.02718916535, 0.1543737799, 0.05854929611, -0.1692586392, -0.02181621455, 0.08109080791, -0.1236016899, -0.1036389992, 0.04021109641, 0.04072109982, -0.01363027655, -0.01577092707, -0.007779494859, -0.004640344065, 0.03979437426, 0.04085158184, 0.03380846977, 0.0105131045, 0.01327207405, -0.01188894454, -0.01734687015, -0.03158913553, 0.002796686953, -0.03283935785, 0.01856471039, 0.008307096548, -0.00503442483, -0.05287083238, -0.03818996996, -0.0329041481, -0.01492387149, 0.01579271257, 0.01453532651, -0.02177207172, -0.0256912373, 0.05859880894, -0.01880886219, -0.05842764676, -0.06290142983, -0.172014147, -0.136486575, -0.0336519517, 0.02161421627, -0.02557721548, -0.04276340082, 0.1886573881, 0.03315371647, -0.04184380174, -0.08843044937, -0.08168062568, -0.05397972465, -0.0003833346127, -0.006009995006, -0.01146506984, 0.00706337858, -0.00699477084, -0.01134335063, -0.0289787557, -0.03181440756, -0.03584779799, -0.03005420975, 0.01534239203, 0.07968526334, 0.03919517249, 0.0009848665213, 0.03906916082, 0.04013803229, 0.03520936519, -0.02970710024, -0.0313389115, 0.01641571894, 0.03002576903, -0.03017869778, 0.02686011791, 0.02977645025, 0.004779761191, -0.02676994354, -0.07433924079, -0.1935220361, -0.1985497773, -0.2581237555, 0.04640659317, 0.1559253037, -0.07372687757, 0.03335734084, -0.2130570114, -0.2041088641, 0.02208559588, 0.01641654037, 0.04843948409, 0.1419780403, -0.005066344514, -0.05269880593, 0.08051645756, 0.1100617647, 0.03721551225, -0.004699407611, 0.02975908853, 0.00555255264, 0.01897536963, -0.01278846711, -0.04310532659, -0.03060172312, -0.02942248248, -0.01068836823, 0.0272607021, 0.0104585439, -0.01500063855, -0.02209950425, -0.02131056599, -0.04200273007, -0.02141062915, -0.01901223138, -0.04866310209, -0.04368048534, -0.05731380731, -0.05331699923, -0.04622352496, -0.09289109707, -0.117395997, -0.04104814306, 0.001799643389, -0.08347865194, -0.1599390805, -0.0142315384, -0.1327390969, 0.1218815967, 0.009713651612, -0.1433659941, -0.08586244285, -0.3272176683, -0.0133065097, 0.06650818884, 0.05465479195, 0.1047930419, 0.02046216652, -0.006649773102, -0.01585906185, -0.01254146732, -0.03350787982, -0.02977248468, -0.01794297807, -0.03933700174, -0.04665287212, -0.04704747722, -0.07252883911, -0.07708146423, -0.03946568817, 0.01937635988, 0.01852424443, -0.007540477905, -0.02936132438, -0.02121572196, -0.04223969579, -0.05988511443, -0.03015491366, -0.01782693155, -0.0329656899, -0.006333298516, -0.008097504266, -0.03367009386, 0.003150033997, 0.016887201, 0.042714715, 0.08024261147, -0.006103032269, 0.08726187795, -0.06667438149, 0.06415028125, -0.1174048632, -0.09188560396, -0.03426161408, 0.01432662085, 0.05594271049, -0.05187112466, -0.06277059019, -0.1526305825, -0.03089526482, 0.08402920514, -0.008078915067, -0.07458110899, -0.0220736973, -0.006426251493, -0.03221967816, -0.004324181005, 0.0267650336, 0.03074691817, -0.004111923277, 0.03305780143, 0.09803159535, 0.08692578226, 0.2102727294, 0.2119776905, 0.04214709252, -0.1256659329, -0.09562653303, -0.05928619578, 0.01278368756, 0.05783296749, 0.04848941416, 0.02094690315, 0.05299900845, 0.007967332378, 0.08505855501, 0.002623528941, -0.1206645221, -0.09870523214, -0.260068953, -0.4431169331, -0.4063543677, -0.5677509904, 0.01331875101, -0.01306571346, 0.1187606752, 0.1264854223, 0.2783049047, -0.05373295397, 0.09628404677, -0.03306484967, 0.08424788713, 0.359944284, 0.2579394579, -0.1384039968, -0.1737131476, -0.02867325954, -0.05168885365, -0.04939462245, 0.02579664998, 0.03755032644, 0.06295336783, 0.05037042871, 0.1123379022, 0.1551887542, 0.1896212697, 0.01687201485, -0.04562678561, -0.06177463755, -0.04033838212, 0.01768280938, 0.009163564071, 0.005909102038, 0.007347933017, 0.001098484499, -0.04633510858, -0.09032090753, -0.1034038588, -0.09394275397, -0.1395505965, -0.1042740718, -0.1489209235, -0.07233012468, 0.04783452675, -0.02780629322, -0.1752887219, 0.06908563524, 0.01459005103, 0.01298813615, 0.1001210436, 0.04090736806, -0.1147591844, -0.3501398563, 0.002316533122, 0.05562138557, 0.1988666207, 0.3132943511, 0.06780610979, 0.02754080854, -0.008522432297, -0.003022544086, -0.03962784261, -0.02440276742, -0.02811200731, -0.00951607991, -0.04382364079, 0.007797331549, 0.05823400617, 0.1120099202, -0.04939352721, -0.03866769373, 0.003829367226, -0.03618402407, -0.002121482976, -0.0224840343, -0.005485473666, 0.02980259806, 0.02105771936, -0.02621485852, -0.02564913593, -0.004930377472, -0.02595724724, 0.03017485328, -0.009579428472, -0.01892018318, 0.003165682545, -0.1071477309, -0.03615948558, -0.06569314748, 0.04871523753, 0.02617410757, -0.08621951938, 0.001420335961, -0.04914923385, -0.09384106845, 0.09335684031, 0.03905907646, -0.07305743545, 0.01985323615, 0.09099049121, 0.03688838705, -0.0026251534, 0.03268133104, -0.006711343303, -0.0241734013, -0.003617234295, -0.01614663191, -0.0223401282, -0.01048211567, -0.02678621933, 0.04318347573, 0.04910190403, -0.007399453782, -0.02620961331, -0.01524388324, -0.01711274311, -0.01199414581, 0.01505743898, 0.02736431174, -0.008996038698, -0.03173818812, -0.09419093281, -0.1209941283, -0.08701918274, -0.09917500615, -0.1075542197, -0.03874165565, -0.01548402384, 0.02934077568, 0.09701162577, 0.156796366, -0.02927346341, 0.1387956291, -0.05116508156, -0.03573792428, -0.01849261113, 0.05595948175, 0.1317091137, -0.113829203, 0.1565342396, 0.06963098794, 0.05616041273, 0.1022647843, -0.04042785987, 0.007479935419, -0.01402800903, 0.01306200493, -0.051391121, -0.03216873482, -0.01861964911, 0.002917656209, -0.02358046733, 0.01892247796, 0.009526561014, 0.03339002654, 0.02299057133, 0.02197320014, 0.006609436125, -0.01638453268, 0.0001954362378, -0.01447491907, -0.03170576692, -0.03420038521, -0.01375462022, -0.02906274796, -0.02402945049, -0.03416612372, -0.01946921274, -0.02670813724, -0.03240039572, -0.01674395055, 0.01187927928, -0.05923459306, -0.09038445354, -0.1406380832, 0.102813445, 0.167386204, -0.1463453025, -0.009494022466, 0.00228963769, -0.1968077868, 0.01070738491, 0.1029019952, 0.05795233324, 0.192815721, 0.1617773324, 0.03540481254, 0.02181734145, 0.035093043, -0.002720576013, -0.03834269568, -0.03174078092, -0.03186475858, -0.05945107713, -0.05860355496, -0.03094406985, 0.02012031712, 0.05442447588, -0.06010297313, -0.03896185756, -0.03611549363, 0.02529701591, 0.03123998828, 0.043641489, 0.06406383216, 0.05202961713, -0.01196986251, -0.01258687582, -0.01809405908, -0.02012812346, -0.005163006485, -0.003909592982, -0.03216756508, -0.02609052323, -0.04603523016, -0.0997717008, -0.1035096124, -0.02841701359, 0.007905567065, -0.1374682188, -0.01581983455, -0.08530819416, 0.08605021983, -0.1352704763, 0.1508672982, 0.02490937151, -0.05195310712, -0.1119692028, -0.114189595, -0.03623715416, 0.0836687088, 0.07360327244, 0.03062667325, 0.0323581025, 0.02051734738, 0.03333453834, 0.02398085408, 0.01899771765, 0.06214910746, 0.04559256881, 0.05667542294, -0.009913719259, 0.03090339527, 0.01172287855, 0.03710756078, 0.008868689649, 0.03698892891, 0.04190939292, 0.02428973094, -0.01680171676, 0.01587975398, 0.03843649849, 0.04185924679, 0.05198989436, 0.003678222653, -0.007860556245, 0.04843314737, 0.1147770137, 0.1099052429, -0.09553046525, -0.1770565361, -0.159757331, 0.04755557328, -0.1679861844, -0.3025591075, -0.2635471225, 0.01016652398, 0.0405703634, 0.09748699516, 0.1419017464, 0.08679559082, 0.04623341933, 0.01441980619, -0.01353925373, 0.01508069783, -0.01353830379, -0.01511672791, -0.04946390539, -0.03715765476, -0.03222548589, -0.01798959263, -0.03037857264, -0.0353157036, -0.06223838776, 0.05224063247, 0.006955180783, 0.05471427366, 0.06377634406, 0.0242364537, -0.02809926681, -0.04775898904, -0.02023566142, 0.00736960303, -0.01371233817, -0.03450077027, 0.005163395777, -0.03695651889, -0.03492135555, 0.08172722906, 0.06595873833, 0.1172625422, 0.2013503313, 0.09747159481, 0.1516630203, -0.03103299066, -0.1559236944, -0.2780964077, -0.1195678338, -0.002044749912, -0.1111088991, -0.01825154386, 0.3128814101, 0.1133548468, 0.06398328394, 0.1802683175, 0.09792487323, 0.02059705742, -0.09135478735, -0.04947497696, -0.07927141339, -0.09690833092, -0.103178598, -0.1164072528, -0.1126203984, -0.06857021153, 0.04045041651, 0.1593249142, 0.04119552672, 0.02901594341, -0.01940047555, -0.0105841402, 0.01208757702, 0.04771929607, 0.03537217528, -0.01596391201, -0.01682992093, -0.003224337706, -0.02187125571, -0.0447964929, -0.01104109269, -0.03813704476, -0.04107175767, -0.03105063736, -0.04022134095, -0.1315093637, -0.06699374318, 0.07445069402, 0.04508333653, 0.09446381032, -0.0483880043, 0.03892672807, -0.05047045276, 0.07060948014, 0.2175503969, 0.00643129088, -0.04338836297, -0.04932835326, -0.01025943551, 0.01537435874, 0.05260207877, 0.1009188443, 0.05627392605, 0.04056603462, 0.0260326732, -0.009846488945, -0.0008407175774, -0.05715841427, -0.09755944461, -0.07849082351, -0.06895477325, 0.02395903878, -0.02279381268, 0.04299354553, 0.04344433919, -0.0406380333, -0.09876261652, -0.07200986147, 0.003995469306, 0.0282239262, -0.01443935279, 0.01012008078, 0.02968937904, 0.03463210911, 0.07800456882, 0.1226075217, 0.134984836, 0.2512778938, 0.3212407827, 0.1033175588, 0.02078980207, -0.3378595412, -0.01716110855, -0.1390468329, -0.03402766213, 0.01514715794, -0.01232418884, 0.1616480798, 0.2138362229, -0.1244077832, -0.102688849, 0.04855046421, 0.09218885005, -0.05606375635, -0.0771073103, -0.03598529473, -0.1057754681, -0.1040748954, -0.1135684475, -0.120221138, -0.08746028692, -0.009117171168, 0.06673695892, 0.1245070025, 0.08563574404, 0.05305978656, 0.06053061038, 0.003617662238, -0.001537895878, 0.022210069, 0.02258743532, 0.04726716876, 0.05575548485, 0.03119357862, 0.03639750928, 0.01786077581, 0.0357886143, -0.007957600057, -0.1143160015, -0.1402471662, -0.09030367434, -0.2193077803, -0.3114256859, -0.2399098575, 0.1037485451, -0.2006004453, -0.007664816454, 0.03565619886, -0.02943294682, -0.1052761301, -0.08538964391, 0.1887255013, 0.02823194303, 0.1432919055, 0.1618651301, 0.0299496334, -0.01482365001, 0.02530021407, 0.0242143888, -0.02475083433, 0.01760797016, 0.02407451533, 0.05571822822, 0.0437996015, 0.06374308467, 0.0743509382, 0.07999797165, 0.03605322167, 0.04038620368, 0.02980902605, 0.001652991166, 0.02191896923, -0.02934010327, -0.04509960115, 0.007800044026, 0.01554477867, -0.02446995862, -0.02823515609, -0.03972287476, -0.05769405141, -0.1120570526, -0.2156434357, -0.2308238745, -0.0712543577, -0.1598279327, -0.2220802903, -0.1872854531, 0.1462627649, -0.1045211554, -0.09826891124, -0.05276229978, -7.110197475e-05, -0.3333876729, -0.4158138335, 0.1194959059, 0.07412819564, 0.215784803, 0.2942907214, 0.07093498111, 0.02743526921, 0.03602843359, 0.05353932083, 0.02333992347, 0.05903375149, 0.09743510187, 0.08658662438, 0.03300611675, 0.0203886386, 0.04986736923, 0.06887449324, 0.02538732626, -0.03427897394, -0.03365823627, -0.02806361206, 0.0348517634, 0.04727165774, 0.04343390837, -0.0294120349, -0.06509100646, -0.08211767673, -0.09235598147, -0.07089202851, -0.04650038108, -0.03669541329, -0.07309552282, 0.002192779677, 0.03074709885, -0.07014875114, -0.05292924494, -0.03270163387, -0.02119855024, 0.1865995377, -0.1253696829, 0.2230014503, 0.02664295025, 0.1993750185, 0.1638001651, 0.04903758317, -0.0753294155, 0.02055201307, 0.06868255883, 0.06195606291, 0.03300922364, 0.04875262454, 0.01811578497, -0.03458528966, 0.008986500092, 0.01665552333, 0.01553252991, -0.006545080803, -0.03859746084, 0.009188885801, 0.1019530222, 0.01173570286, -0.06015603989, -0.0004433237773, 0.04885812849, 0.06887261569, 0.05059392378, -0.03577967733, -0.008107427508, 0.02210928127, -0.03928638995, -0.06562357396, -0.01389613375, -0.05157194287, -0.02488887683, 0.04117326811, -0.03026195057, -0.08867900819, 0.09337347746, 0.06977459043, 0.1902510673, -0.0352845788, -0.02801563591, -0.1558364034, -0.2323986143, 0.03335456923, -0.2471729368, 0.0918193087, 0.2326366305, 0.03423440829, -0.08948918432, 0.09653073549, 0.1443673819, 0.07244799286, -0.01948324963, -0.01107780542, -0.03754108027, -0.03591976315, -0.04502171651, -0.06979634613, -0.1155319363, -0.09485591948, -0.03602141142, 0.08133288473, 0.04385985062, 0.003671259154, 0.001218423829, -0.02534232475, 0.02556579188, 0.04800273851, 0.03840610757, 0.03112021089, 0.03775162995, -0.02131249011, -0.05372167379, -0.02393284254, -0.06306894124, -0.05901510641, -0.05536539108, 0.01486719213, 0.004169076681, -0.04788721353, 0.02362787351, 0.156191498, 0.07859328389, 0.03072801232, -0.1563054323, 0.1132657975, -0.1932724118, 0.1299802363, 0.04669452086, 0.1597696245, 0.03342805803, 0.05564204231, -0.01629464701, -0.001397061744, -0.04070368037, -0.02781226858, -0.0002146494226, -0.04225411266, -0.05237850547, -0.03516800329, -0.0834351927, -0.06521862, -0.06565990299, -0.05116568506, -0.01686746255, 0.01306206547, 0.002798814559, 0.07016249746, 0.03199817613, -0.01390415151, -0.009689354338, 0.006838836707, 0.04569008201, 0.04135145992, 0.04221588373, 0.03828570992, 0.08794613928, 0.06600724906, 0.03021391295, 0.02207774669, 0.07304176688, 0.1882725358, 0.0676875636, -0.1085571796, -0.2128585428, -0.02932885289, -0.05783291906, -0.2804971933, -0.03032396547, -0.3344085217, 0.04652234912, 0.04638939351, 0.269700557, 0.1223361641, 0.09739968181, 0.1501219869, 0.1298594028, -0.005403653253, -0.007182182744, 0.02805155888, -0.005013997667, 0.03374330327, 0.0247096587, -0.02895420045, -0.04299196601, -0.03720168769, -0.06289687753, 0.02195885219, 0.08179733157, 0.1031084582, 0.07144775242, 0.04120798409, -0.003993926104, -0.04863045737, -0.01191293169, 0.0148118306, -0.007243836299, -0.01228336245, 0.003464575857, 0.004030027427, 0.03202595934, -0.01436612383, -0.002922815969, 0.09926357865, 0.1833796352, -0.04194429889, -0.2170192003, -0.09201399982, -0.04333228618, 0.02701294795, -0.06602922082, -0.1880498976, -0.1209271774, -0.1695236713, 0.1527945548, 0.07569725066, 0.07084024698, 0.1561217904, 0.04422778264, -0.09806188941, -0.04058456048, -0.01984766312, -0.08875028789, -0.09879224747, -0.06343578547, -0.09115811437, -0.06074662507, -0.06284229457, -0.03423733637, 0.001059861272, 0.083116211 };

} // namespace hls4csnn1d_cblk_sd

#endif // QCSNET2_QFX_LBLK1_QLINEAR_WEIGHTS_H
